18832| 10
i18858| 0.014071373248597786 0.013174987830878018 0.008103804782180323 0.011390240226155552 0.017592287128293298 0.01476452393144565 0.0058035659073820255 0.014069980694078292 0.01661375880192415 0.00785912189507229
i9446| 0.002628978452971886 0.010306553595185957 0.008762258541900351 0.007843839769413611 0.008991155363031564 0.003582676331325892 0.0072931962284641435 0.005180679241160047 0.010469141210626351 0.009904528496762686
i26520| 0.007803589694200973 0.001769475408766093 0.006229406410721186 0.009577121939876268 0.003916221822622315 0.009320086706466404 0.002595126433438302 0.009165506041522196 0.008158455286762139 0.005286502005312198
i32626| 0.009100663044275065 0.007196641066003327 0.010301174378393346 0.004402310082848369 0.010159716771458917 0.010721104414987028 0.001322783586296729 0.0077494136196278466 0.006274218482106342 0.006878726455961676
i30425| 0.0045801808666439585 0.004576920236597301 0.01001198574497964 0.009626556635610564 0.009444611285851815 0.0073688802772874495 0.007067201811390032 0.0031969569736644827 0.001989029345703184 0.005425428107887793
i24964| 0.005630762625082278 0.0050998019548908705 0.00010927094890450952 0.002962728137610235 0.003113707036493795 0.007171736155130429 0.003752177710351417 0.008042202500357145 0.009013570346550205 0.00213067911991457
i27453| 0.040136691579585576 0.04441294296489853 0.058432481108179876 0.04707634351366755 0.053579601787554255 0.05521969371444487 0.05088898320856792 0.0445010223696478 0.059767465444774646 0.043224138526489514
i5698| 0.056560958203326996 0.052383539442119174 0.07041905610798381 0.07281936226067957 0.06791148834200943 0.06240543433187757 0.046176871350485676 0.05980394115858049 0.06504861553363384 0.062291218526809945
i18879| 0.051508279323229336 0.06725339565430768 0.05984577957271337 0.06573930929466314 0.0650521980933611 0.06908359250892175 0.03809105776379897 0.06123749496945895 0.06669455742706824 0.06425022632413942
i11538| 0.03817360372825373 0.0442401471148637 0.04690820418440117 0.056870354142288665 0.049371703858216376 0.05704628984872809 0.03947658812969355 0.03463675281018573 0.05489704654709898 0.03200688071054708
i23028| 0.013510073365693617 0.008944280222260112 0.009694733735613114 0.014186529983819895 0.011895808181901436 0.012092891436690354 0.008637911798088939 0.010825431600779915 0.005849605126137115 0.013983774121344744
i36854| 0.009190210925064023 0.01026173401652833 0.007742517907400149 0.0053474142661583115 0.01276522763249835 0.007983755750254671 0.00925107592476415 0.0016922849284681351 0.00434730817336888 0.004755504394761973
i25901| 0.01049006727032107 0.009959633861519416 0.0027863191435518976 0.009581206936802455 0.008310269577387943 0.008366402556016632 0.002076378592010322 0.005064871518807526 0.0027141083430816462 0.001339271349398317
i17519| 0.010552379639789852 0.012301176306099563 0.0059690525110764545 0.009681509162802915 0.016468924423950662 0.00912356295759728 0.0059299504950790635 0.015133504541273065 0.006076895737921122 0.006078736762109362
i26709| 0.007211270418963836 0.005598602926097827 0.007425325574670741 0.001208925398877665 -0.0010796021816496188 0.004284434163685551 0.00379121348321182 0.006973726145992044 0.008125781181453094 0.012339156893954303
i12756| -5.2295847249140786e-05 0.006137462662820974 0.009086463628611879 0.00655234220858436 0.00393795480600557 0.008605775521725227 0.006479720134544503 0.00857962153724947 -0.0015331578740872952 0.003615344322070115
i18749| 0.0059643158686843506 0.00713088129200647 0.0058871309795095325 0.0033284775885797915 0.008982057188197997 -0.0006000163529826063 -0.0007316432553562724 0.008445423117147893 0.0019224588417535346 0.0010400256457489736
i19576| 0.0035604637722880302 0.0004658261160580244 0.007359016454812796 0.000540385384549731 0.004988555305408534 0.004075741994303399 -0.0004657196704896964 0.007114853641752035 0.0012173736568922694 0.007756785586681228
i34426| 0.0019412470911551653 0.009480211417007603 0.008560793627761772 0.010076270272252408 0.006321761705661974 0.009399665461277235 0.003383386134799682 0.006215707668171416 0.005579599598156211 0.004503641058095033
i3386| 0.004436360981733172 0.005511695299133137 0.006285782389459486 0.005870001235774786 0.0037776109363324402 0.0057225266966799805 0.001073127901692658 0.005458550306982673 0.006296324414362384 0.004933138084644471
i18280| 0.004449335435502678 0.009106122624888548 0.005857656349944145 -0.00032326340270344883 0.008756450899605533 0.003967660986309131 2.2589382785085364e-06 0.006404741974243361 0.002614621344315327 0.006554711962852538
i29791| 0.004059859698958368 0.0029886275631402803 0.0008596069626938502 0.009552068847233853 0.0007914850425918903 -0.0005743433227931103 0.005516376006795428 0.008874864813193755 0.008494171193856034 0.0034976546589002293
i17958| 0.002902257294280858 -0.0002365580361738797 0.003609119231433704 0.004390889110060349 0.005937256331620542 0.008435377747404415 0.005405537293430053 0.006752523860776011 0.008748566639196653 0.001618452576679984
i16825| 0.008197774367481375 0.005050565811241327 0.006551130853020101 0.008183740423575668 0.002031989431796271 -0.0009282417235965632 0.00046875615977437924 0.0073298136921045995 0.0021456563375128177 0.006038852520244615
i30355| 0.00042181127828004 0.005241924307576667 0.007333716550560871 0.008986775972670629 0.00013257807749482718 0.0016017760811167423 0.0039825478935920635 0.0069464022175198415 0.0013734697126677258 0.0018376546850417815
i14382| 0.002462190357595812 0.0018558947403537085 0.0056118759869210185 0.0021511425694763706 0.0017693440373738436 0.004075640272132863 0.003055033567062082 -6.843470942736839e-05 0.0026957943161988237 0.007983016218818433
i8393| 0.0054246591324336796 0.0001496114093926385 0.008479108389914919 0.007826090441935234 0.001333822593411227 0.002947871949036747 0.004247514634410479 0.006658834036503197 0.0033857494525265704 0.005642329669484658
i34898| 0.012375508736253003 0.0048495914652466904 0.008839118636535574 0.008467993084552128 0.0012837234403593081 0.00495101594594442 0.0054426652622661335 0.002811490354666931 0.008906369227626944 0.005926240592114807
i1058| 0.0055814315229318736 0.0017193659558962825 0.005438836654231031 0.0034416289954769586 0.0038949647211000645 0.00026996151548497343 -0.0013145017700291596 0.007329559602302541 0.0045377950088349795 0.004515476761209449
i6860| 0.007583517823407371 0.00442327435951007 0.00421262956091339 0.008829433738586146 -0.0004904540689197777 0.007217215524860238 0.0037393941076263836 0.0007861333638152697 0.006200664637927229 0.0076056936496887
i13865| 0.00629380552585094 0.009373429055759512 0.0071547360214603214 0.0015097518020497965 0.011331663063776828 0.0023447936770293948 0.001610859200811277 0.0023494808721429743 0.008392766544856439 0.0022084286467653133
i20057| 0.004109684076938492 0.0008780885490997492 -0.0003266901535710037 0.0010064621749396737 0.003574742567693014 0.008744106281583905 0.0025594065061328272 0.008588703111848433 0.0026656536136770515 0.00709473184507934
i36954| 0.0015171140574104216 0.00545928739296229 0.008503908464391521 0.007586451328433854 0.005156024936296107 0.0029926402396724325 0.0055191963975045125 0.0038352256234231684 0.006627046946528751 -0.00045878210055573195
i24621| 0.0001807813069118443 0.0031782042659149142 0.00573615004429101 0.007205876120047588 -0.00035945657220580354 0.008448328904655182 0.0063472241631772576 0.007287347212681689 -0.0003363286391117474 0.006625668110043109
i12831| 0.006845594479057285 0.006810418144158615 -0.0006008053727002042 0.007588047757653101 0.000321291476439403 0.006931242760585528 0.005941785740141451 0.0044865822656094834 -0.00055457875543856 0.009050558914584957
i20343| 0.012232554154884986 0.0115407827709316 0.001116424959553756 0.014721561044379763 0.008352242215122443 0.008346731977030652 0.001821155905978742 0.007893566922139102 0.008098521122138038 0.0016055792354591671
i33120| 0.006708263952249876 0.009998987611173316 0.001905642330522434 0.012800534333276046 0.009074784938547863 0.005867275188837285 0.0017713385636863596 0.0031164807343975584 0.010756262223825792 0.0037049114057484695
i25348| 0.010262248406650368 0.0093588033065252 0.003142509730280719 0.00859718997328476 0.009914014659248996 0.002681408422620442 0.003563148186120748 0.006150878212027973 0.0047925755766318094 0.0011802740798764857
i13721| 0.003771233599446652 0.006004736496914933 0.003718700775380012 0.00551522941958097 0.004056992800961147 0.003333808398977395 0.0013341629394558617 0.0030881448087793206 0.008970309058636963 0.00033141177484633075
i8530| 0.010180252552788828 0.0033658176659694975 0.002193107530909261 0.001518311230611499 0.008026880778828386 0.009171156451722437 0.0025894960538276122 0.00168977837293086 0.007678559561248569 0.011812908646355546
i20088| 0.009389581480003871 0.009354827008109731 0.0012312290413004703 0.006199335359587351 0.009832752509610776 0.00947651168179329 0.003520149419623187 0.0009714493640848295 0.004548234141640746 0.005804828204766772
i26538| 0.0002236036854701719 0.00457901152563337 0.002048223585384491 0.007612134945798489 0.0033377842355372398 0.004950807241827973 0.001831010313960656 0.0009499368746539002 0.00010786679231988242 0.008603107264970818
i24421| 0.0063329749177133835 0.007443722583462679 0.0033180033125791457 0.0008987070544496208 0.0019094921895944353 0.007634920053128236 0.0034882616903902843 0.005194624552717814 0.0006456564279214878 0.0016066115675041491
i20655| 0.005712266899573999 0.002354269896178432 0.004279219313296377 0.006276992156669839 0.004202846916248119 0.0031267395579618346 0.0024663998167415557 0.005092488501859001 0.00857910689856234 0.003637330678236706
i4932| 0.007027262187133611 0.0002022902464205437 0.00040729595999812045 0.006860781193927889 0.005442790534150626 0.0037206865345082493 0.004328959948700742 0.005605226440383587 0.00585955129570134 0.008657228415963262
i26584| 0.010211621207211644 0.005121250979249002 0.007967351733777476 0.00496743650345608 0.010248909986826926 0.0024440646042715396 0.007718565262235274 0.005705307091568894 0.0018048687262866207 0.005270893640919557
i12512| 0.004755065202833024 0.0012220412774838945 0.006312875844063292 -0.0009226805825288221 0.00044059897061836975 0.00537890592982084 0.007504201163145046 0.003072929596692615 0.008760274901029867 0.008619854069071954
i902| 0.00840687963608657 -0.00038450434255004706 0.0031585693398695773 0.006263514056689447 0.002198694769556033 0.0020626986887757773 0.001871790277433563 0.0018249850145277981 0.009190819144446857 0.008348076207575602
i12448| 0.0059138996186629276 0.0018662461748169567 0.0015418021030597937 0.006780043446610504 0.004713312254959896 0.00720050038682859 0.0011345994510201505 0.0016983293102380127 0.008296796737694545 0.00663042897107145
i14798| 0.0020496523833457973 0.009797417464646276 0.004522755351534158 0.001431529488259171 0.003918966689775001 0.0067446673022336315 0.004121269718905505 0.0004205984503742148 0.00701121298060425 0.008436564795212343
i14182| 0.008441370377572165 0.0014037363505253315 0.005897226055392734 0.004847652665525748 0.008672856660486459 0.0025580775735833195 0.002610449169795858 0.00896882858971673 0.008687842144391817 0.0008468981211787621
i15287| -0.0008373915084684279 -2.1740786852917233e-05 0.0035019609491494263 0.0024167626936354588 0.008789999722763703 -0.0011749681081715687 0.00630582446022297 0.008709820509043191 0.007829157104562615 -0.0008336364629880405
i33142| 0.0021416524794126666 0.005521281214767871 0.006749031653762568 0.0006994143336450674 0.007689402481026961 0.0023770296433358222 0.009323843480858865 0.002979999487861134 0.0021305100961717914 -0.0004775582059708153
i19726| -0.0006457150789378738 0.005702897800810836 0.0015842211214326194 0.006111192010612348 0.004757673108965479 0.0032615047298081303 0.0021249994306935874 0.008941589754757121 0.008984252518218277 -0.0007507272937190166
i13122| 0.0027672410232440965 0.006309443590280461 0.0033050208419372388 0.0015733840176302906 0.003076553899691962 0.001597581662441083 0.0034737150650123406 -0.00025070422284630665 0.00549931893380605 0.006707583231506731
i17582| 0.007512862382375645 0.006958433684810398 0.00820550785847957 0.007685418371858386 0.007151493957230697 0.004406730572864786 0.008213444826183835 -0.0007292009014598282 0.0036824194963033055 0.006115176235975856
i2631| 0.00782095701626933 0.00714195434479562 0.008878674405423205 0.0014511790532343762 0.007189026371837334 0.004985122676855669 0.0041281237951297164 0.007924519692599327 0.0014034091316382786 0.00014934481217265951
i14492| 0.004839948699946429 -0.0007053218823999104 0.007311815003068102 -0.00010570891032081773 0.005159897715053067 0.0047343911217103225 0.0070746720111512845 0.008476771120242987 0.0024306982097730416 0.0036492620688547317
i32743| 0.0037440941607588154 0.0017663764000761216 0.008805668607248143 0.008491856615743459 0.007938415392516171 0.007989061027845032 0.00898591887620057 0.0067959372782166886 0.0013491426344784934 0.008950856274114587
i35946| -0.0005493781576272177 0.004904163979128206 0.006729971384342611 0.007480144919266607 0.00839724156756058 0.007855082993970783 0.007653289751906286 0.006014993960373873 0.004798984404293725 0.007394056722912676
i10820| 0.005014986346875923 0.0027956719108204525 0.0007638714869412752 0.0031406619995529945 0.006885182829136418 0.0027122125401465866 0.0041931661781152985 0.00013635161748047894 0.004737703739994508 0.0020166772175592707
i12414| 0.006199200115594622 0.002942901917062057 0.004799585736057404 0.0027929009199703196 0.008154418833392045 0.0022917802613335522 0.008927553249034208 0.005277240254964198 0.008858848291976168 0.004153501213088351
i28234| 0.017563157028892832 0.021826776609879275 0.03543772339920225 0.018701886231795056 0.024178738785490088 0.009187298860449339 0.01850836098513445 0.012058830282897245 0.020021602431124125 0.024024840527692486
i6762| 0.018030117083351026 0.024662825174604087 0.024645590727489737 0.013064969153860606 0.018007212944239633 0.00820177564300058 0.015138170261047613 0.010457897194587232 0.0204252031255589 0.013834413347952844
i25146| 0.017251272154738963 0.01439409477067609 0.008279371579549779 0.015347812817147689 0.019073548023665052 0.021971372414174715 0.014319663540257413 0.012243397240205671 0.021508585540332584 0.014944599438774969
i6326| 0.012607809238962306 0.01186135085409914 0.006339417676519538 0.01373628702227308 0.012169172144909658 0.004073678609410033 0.012826359781943106 0.011284930938892239 0.009755907365356887 0.005119760981344722
i837| 0.01458221082808547 0.011204386615214236 0.018221309917693298 0.01135929431032109 0.013745201034618968 0.015053261060617497 0.010434134667104916 0.0073395516343821 0.013286808465177864 0.019132008236052357
i3499| 0.01474409916135483 0.009673011883501285 0.007983778311261182 0.007256766306769332 0.012871358900721034 0.00666855662894959 0.008325317892396428 0.009858547016571921 0.004542786326575501 0.0032983125482960707
i18455| 0.02153836738257093 0.013546775065270819 0.015520559204049081 0.016180201820560347 0.020903746302195558 0.018604273184713308 0.011840688717472332 0.013953555668460427 0.0186387212077855 0.014909554182153548
i19763| 0.015125903433285662 0.01604719624030271 0.006847675851623275 0.007396717263759055 0.008510122050635092 0.015249218849848267 0.013732487924766208 0.009315826257609136 0.009496071287727625 0.017494439008578392
i11869| 0.013841382838405995 0.015553042536458329 0.015807967369094976 0.004525373291917121 0.008290378624710612 0.01590601327977521 0.0125493632579842 0.007701251442821855 0.010025859194195866 0.01522221561673486
i28372| 0.019232165742060676 0.010760830626750668 0.00952928306707175 0.009602618863130099 0.012517172097148463 0.012082308697592355 0.010864828016398462 0.016852437002954326 0.015628865598672412 0.01028597262209255
i1139| 0.003532768403412717 0.01039793383041767 0.007831542520867497 0.010143126463329061 0.007859595338078 0.009891452850344063 0.010738352602487171 0.007043300844380434 0.00405091331960909 0.011212010142907378
i8620| 0.0006055156728318017 0.009848081979804428 0.006467056761783291 0.004840243157635293 0.00830596471544242 0.004135530316004692 0.007121112860320512 0.002451261217382008 0.0073845560275123175 0.009071506248852522
i9022| 0.00859713986957087 0.009925856900447923 0.013650948262230865 0.00516079091248272 0.009942961926495174 0.007755263710926188 0.004897153409151674 0.004781127969453536 0.009468378807071593 0.004392976514684513
i14924| 0.007430045551669299 0.0021101111705142377 0.004569801368282688 0.008650242642604116 0.005084642189385057 -3.500280860018573e-05 0.006437155397476792 0.010214047357987989 0.00391802494227515 0.0010232693194699885
i19660| 0.009221958291679756 0.0039345526306716685 -0.00018987939700925387 0.0012412580180737804 0.008663465307330422 0.006197569812684779 0.001874151089937938 0.0041892768775147774 0.00264289433608299 0.005276738095804404
i4464| 0.0012362070729211095 0.008074726965753756 0.003488870187245689 0.003988566829579749 0.00017799539437454137 0.0007515964818794667 0.002608068376951187 0.0072666899054992466 0.002595553852598459 0.006584403748280869
i26059| 0.001130236158932613 -2.3293868818513128e-05 0.0032792834578141594 0.0021919503190323745 0.0001739866367870029 0.0062363920713730935 0.0037005519322199486 0.0024361953988220643 0.003916310258302683 0.0029196931675161287
i29296| 0.006192464167587078 -0.0004747852078248378 0.0043530657318709325 0.00404441572120698 0.008010590115221905 0.007851222015020832 -0.0009734182390628063 0.0013781158528470036 0.005967009552566906 -0.0001875443803343453
i10318| 0.009025171901374585 0.004600877662574873 0.00028926540368308243 0.001592397193554218 0.008053601266144798 0.008963379314123564 0.0003313166648211526 0.007211609418307386 0.003279029163177516 0.009935390306110238
i35077| 0.0012000975400151324 0.0019412140257319516 0.006233614954071518 -4.81333701753294e-05 0.0055337388149024405 0.005000538122390008 0.003286907462026414 0.005132236347428564 0.007784679254651011 0.003216232972069876
i2533| 0.007991259476837079 -0.0012495353369010066 0.00017203706536232508 0.007271922445287637 0.006538188659277801 0.002261352572770935 0.005303906784915369 0.002966778002721905 0.0054876917591045096 0.0071655441735295235
i13173| 0.005423076638940763 0.0078114918593863054 0.00031829006086741467 0.006277143949809091 0.004384750625310364 0.00682245787811028 0.004033864715784662 0.00017658303330835535 0.001699912903067067 0.004209010829821114
i11498| 0.19542567675823638 0.18714012796345056 0.1759707867368804 0.19340500304139507 0.17230779644477678 0.1965158912799936 0.17024600664638423 0.18261939607608302 0.1841846098917005 0.17493011350202306
i16882| 0.4291079192303808 0.442840630399363 0.4321831498288246 0.45627190047667665 0.40095510847441007 0.37884932447293496 0.3745568215325296 0.44634893636741435 0.4353013919827517 0.37765772419988686
i2401| 0.15799586801144613 0.14601366160974033 0.14807894172464242 0.14916173539133523 0.1421381094965765 0.13271730217686029 0.14211818713172103 0.15210737627784043 0.14645289589706506 0.1349459107078295
i24899| 0.08485606307019847 0.07596912082645661 0.0842329198236633 0.0885058529131107 0.080060047286162 0.07344481025566395 0.07935611685976811 0.08534110129612742 0.08227374770446245 0.07895081879639217
i11057| 0.07573771322365286 0.08403049575334337 0.07657859113862243 0.07850832132639327 0.07074441993600175 0.06960734019187459 0.07665018871259367 0.07788711307264952 0.08219360456277172 0.07291257212655115
i27944| 0.06713386277969868 0.07306244013685755 0.0636550347296474 0.06977892984701747 0.06180182809492792 0.06733459802494629 0.07395405093039904 0.06176881132264091 0.07905583493005833 0.07025181521401677
i1534| 0.05085121062373149 0.044751831640866276 0.04642512366709754 0.055001988117724936 0.042833131615075015 0.04498648002119507 0.04876041369908721 0.0528160028055872 0.045609824030052704 0.05066492610267149
i10368| 0.1431251915261154 0.12782930502302614 0.13609142080961859 0.15302651936563472 0.12948939398324555 0.12352638574687466 0.1207890859422949 0.13723572488306163 0.14220993704250953 0.11332431639593697
i21181| 0.045928775895528205 0.04635095640032583 0.04835896510908274 0.04500027081528101 0.03779286265726134 0.03627470413914739 0.04319462223869236 0.04769886853267364 0.05091776965159289 0.049274294145401874
i33293| 0.04121879933722954 0.03086734905972997 0.036012856896766546 0.03656557505751574 0.03133904310419314 0.02762295010038167 0.03163629954857745 0.03443481806408157 0.02912636329830597 0.039971531328553474
i1972| 0.034698273189661885 0.029123311082691374 0.03943286968946068 0.03579201203303411 0.03363346661999125 0.035549072110913335 0.035845954897442175 0.03446147650949144 0.03135390756908093 0.03889920706421425
i11522| 0.03091769583311598 0.031714629527102245 0.02925622863470767 0.03188015565857134 0.034487026810995296 0.027701429096539137 0.034929393003946804 0.03307224693614994 0.03609771262131588 0.03600014807302391
i25982| 0.03155834182005699 0.02407183014924067 0.02737464634233046 0.03279401949122075 0.034959508805650207 0.028175893070685673 0.028019703372398546 0.02871416047265238 0.026851742873338042 0.026510896331090654
i37342| 0.027366996200065608 0.015297045269047871 0.024011306301319 0.023216572913714664 0.014825950846932185 0.020117292103288664 0.01590318963664016 0.024610372184583503 0.023028316912456666 0.024574565168860273
i30015| 0.025334243890364486 0.019783326837190484 0.023631003510840545 0.02440486963525675 0.01995360682085798 0.02491005141845093 0.017873863432472308 0.023771040332976095 0.01817210206815447 0.02140637046296702
i24981| 0.07094234238851643 0.06452354760006729 0.058229479014086614 0.07082847026267884 0.0670637899044473 0.061359585935729946 0.05809806642565535 0.06305738142637693 0.07205268172113732 0.06009552006542227
i6557| 0.038879590539733874 0.03608493588575834 0.039564621776083324 0.03585935161048021 0.033779931721466906 0.035556753425778916 0.03078290443874526 0.03966520570467731 0.03368056917242047 0.026597543305411052
i32901| 0.028560769296938085 0.02129735116598469 0.0141430677417198 0.026297288475619667 0.020224427403903112 0.024274455939780726 0.018191800240366825 0.02431174571378542 0.019749775658950714 0.02574716080924433
i2997| 0.022090409352537692 0.015708488922313003 0.013243576043286484 0.02341415180399308 0.016660750905429844 0.014694254368356037 0.01907705202573484 0.02233011478645276 0.01698371159077697 0.01757445188285933
i13444| 0.014096355203711844 0.014583155779499833 0.0170379647996272 0.016538707982951466 0.01877838264420628 0.02021923425781959 0.01595660434798414 0.019275640136405724 0.018761027212810092 0.02101754812756279
i11424| 0.013989263063931171 0.019921734590996262 0.017169802554643093 0.022058725203856492 0.018829305399982503 0.016023609953468458 0.014201473967955541 0.015104825764181214 0.011094888748534334 0.021451383489842754
i33896| 0.01961300208949045 0.013300988921280456 0.01379941323689971 0.019875402001910285 0.016123593378602565 0.01858586722057292 0.012036541855650682 0.016626343334843537 0.016765627798621126 0.009717533028233041
i34611| 0.10110283027308131 0.09236630862507447 0.09911963321825754 0.10662573506502267 0.08055446802342983 0.08332088237186464 0.09080588863597572 0.09485950849602287 0.10188894327615382 0.10187787262804406
i29477| 0.0313057477167236 0.03042780469820664 0.031266496045259204 0.03420798774966406 0.032344941471462524 0.026107043540943488 0.024031358658793318 0.022281928195498006 0.027831186513693252 0.024767571225269763
i18397| 0.02491856423853587 0.02280608602577512 0.025588014041387618 0.01575386996028095 0.015535269638591545 0.023997431789523203 0.01752920353235967 0.017510596924921597 0.021461833641945118 0.01588231653717385
i28016| 0.016622599711197828 0.01743525251821603 0.020615020959343536 0.020164363886881222 0.02235961458739932 0.021131724925826188 0.019955652399204285 0.010566920573527289 0.020479909527703823 0.021825413809296413
i2661| 0.012123857798068325 0.01576565754070446 0.015855586458128727 0.015512158652631218 0.01056256413457099 0.011292982160677015 0.010287795713221743 0.008404510498209315 0.012002320074292683 0.01694787779891594
i7528| 0.020379345268739982 0.01413304280254252 0.017594327250458865 0.0123713909757927 0.0187542461775198 0.009863085552119885 0.008317068497727925 0.009844368578953306 0.011227274926285929 0.017308098116078887
i7643| 0.013458487410874659 0.011238686219689492 0.009712673468368696 0.016226125270421967 0.01491527979363309 0.011245251469174999 0.008891634843483941 0.007181621656537147 0.007759503570797934 0.008235488428417172
i12907| 0.04489177129648709 0.04332384283465612 0.05239686165712603 0.04077393906758605 0.04049737487845537 0.0450005936420733 0.04992745187258336 0.04187495094764158 0.046511658549450025 0.04793094782643428
i18818| 0.009295161466864042 0.007559144476712661 0.0031378182727065714 0.009905429219622713 0.006709188443511933 0.008296911084456784 0.002781522150414312 0.014439170007077128 0.00858715960097909 0.009679530702101367
i7735| 0.00483042194869946 0.0034466597904765223 0.005627880249409761 0.00790915503921591 0.001109597928548414 0.005119949743943022 0.008970094424405365 0.004972305153162158 0.009396958763828312 0.003391240505645697
i37312| 0.008141218349412224 0.006620171822300908 0.004722859159033395 0.0035655974655223895 0.01044832973004476 0.010526998511161244 0.004391630690408323 0.002126828482510463 0.009458098533347233 0.003681555929319177
i31615| 0.008453350108299252 0.00655980775024675 0.003937825633526886 0.0059667742320413395 0.006655772227423861 0.010076576649489154 0.008749619280270005 0.0027060085244516494 0.00935111331346366 0.0037768293982543295
i22564| 0.00687029889571523 0.009713432481588872 0.004658210694749137 0.007594744802020333 0.005709424052532888 0.009824509046310943 0.00910499709761616 0.006266394524183064 0.00546889095732111 0.005006666151504983
i30983| 0.006098253232062475 0.007553254853957018 0.008429976585447575 0.004824979642170807 0.0031297048434870507 0.00689844861445008 0.0063570570433817445 0.004879228578012397 0.0017544620740162261 0.0001238481606914364
i7697| 0.001160266665814224 0.004729497243892836 0.009808140572249643 0.0011900571560558718 0.000783312244176363 0.008547007962282211 0.004270418522127403 0.008147425772728867 0.0019214151269080838 0.007721342576593345
i28780| 0.005217947278210544 0.0023271869422035684 0.0029995055921363395 0.005842058378730445 0.006090827316662105 0.007768722766046403 0.00249852516160372 0.003336215762564558 0.007855002853605296 0.0035617027482465155
i36908| 0.004996691404832878 0.005710484973673025 0.001042212914360352 0.00290726401317638 0.010473590709905523 0.0041121830326055295 0.0008678854649115783 0.0022638463866506355 0.004001070199428752 0.002504294661621379
i14783| 0.00399808324398714 0.010042632216974153 0.010479216275778887 0.01286641534878959 0.00610627863377181 0.004820148199151874 0.003736773740922335 0.006841972907249027 0.0036041732180853506 0.011598917142645774
i1913| 0.0038672448786336746 0.00478730692206242 0.004518528603841313 0.012013975042600463 0.005489111335944442 0.004325000888812978 0.0029466211063653193 0.010454215740796602 0.0021205489819119874 0.00612934823007668
i34455| 0.000919463714908447 0.008741537658618945 0.00813821219414855 0.000980016527525916 0.004619525538081098 0.00122278683629775 0.003804538395936944 0.0038577873069984944 0.007655000105780543 0.0021276719814011754
i9001| 0.005099514747859211 0.006384566496947774 0.002611435794281017 0.008966217447242004 0.005472571649705378 0.005236126636159197 0.003756067918567991 0.002949490660764111 0.006111821701994204 0.005547559762531187
i6945| 0.0024799832988253254 0.00558437492334717 0.0005175242246251936 0.0008627846121739016 0.0016366553164383784 0.004402227888973581 0.009015666395834211 -8.170530262749064e-05 -0.00020658958663748303 0.00467070854781493
i30500| 0.008291020855935569 0.010148085798897494 0.003293158893384138 0.0033859181278154743 0.007810939437117251 0.003804356904871965 0.006235862806844774 0.003816760166781569 0.003114246682315215 0.004691724979400953
i37314| 0.007298597705425733 0.00252197125623746 0.005950734138399443 -0.0007109415680185752 0.00700688236372298 0.00593460118254289 0.008185600022907946 0.004948913665379185 0.0031839860251646427 0.005678740696317242
i6892| 0.002695914918184463 0.006214554040800752 0.0054387438342692815 0.005240612565194008 0.007165987335190477 -0.00015529275571238464 0.006972257815164116 -0.00018006259126184394 0.0013592441432026061 0.003034169728258434
i5141| 0.005579386881723751 0.006833641134650785 0.009587180484845456 0.011323715373781818 0.010937920100448365 0.0021875542661776246 0.0042448725648728805 0.00819059857843438 0.01035406328660647 0.003029345544253068
i35265| 0.007484386824893015 0.003001275993401998 0.007867238014536013 0.008241519274151364 0.0013024249090531131 0.005257644295332677 0.0032421404400603047 0.007802037533527183 0.004506967394756207 0.0021146187530074845
i8617| 0.005569841691508701 0.00585304203307295 -0.0005590492261099739 0.0057586685118017665 0.0026635843234202954 -0.0005485255473797298 0.007776680190110658 0.004260502386737369 0.004631506036644954 0.005586014349884153
i18963| 0.007519780024169813 0.002252932084737081 0.009600280213941619 0.004050532450029064 0.007310386137577583 0.0055979269768623 0.004460733664941029 0.004650672981655897 0.005575780432742209 0.003992507865157941
i22084| 0.002410811327136059 0.005471410702281281 0.00652899121652196 0.008950781532332546 0.006744549723953552 0.005487096576746941 0.006444022701821604 0.0013238906498555273 0.008731128242265391 0.008105843766825478
i2333| 0.01908432610811024 0.016426061767472973 0.017592844173046594 0.021003088027653046 0.014478693924904027 0.015304333235162223 0.0217955105382294 0.011634055046903445 0.022592498765413985 0.018050694102454527
i18628| 0.01378900949655808 0.015958097409760973 0.011796102600312964 0.01881537974081048 0.01516109419442988 0.01478902177626999 0.019292812657095107 0.018990849748749948 0.020522653573732084 0.018345809639580414
i23270| 0.0211937944795824 0.01880490043212675 0.0169806009606476 0.01867822070128729 0.010688228507768517 0.009105734183674247 0.021783018308643414 0.020853503044984067 0.00971364329222656 0.019959574121020892
i35269| 0.006148944094440788 0.006750507212137473 0.007248339610309304 0.007301680076303416 0.009707768377054048 0.006925346840814299 0.00751871285103319 0.004780392948401375 0.00012574041273966173 0.0016723356792069902
i18904| 0.008151081653346024 0.002753895463037534 -0.00026183684462538866 0.006375913675195187 0.003556274559942555 0.0005231287013093419 0.008561271371667003 0.009077008050830844 0.00830295020160396 0.006075839453637798
i31210| 0.021942448792198067 0.011747730344427804 0.02306765718820113 0.022699693899752602 0.017394788521289384 0.020499256803659736 0.019697560376138387 0.015139763048687012 0.019131717249154072 0.0183184320651625
i9094| 0.012859669794427408 0.015013842717904036 0.014782068156874502 0.009349535484774683 0.013925038884042543 0.011323280968011225 0.007045579822615289 0.016356955014107562 0.01332538676355417 0.012983623793275424
i11671| 0.008138961397915619 0.002821420351555384 0.010184058501367485 0.008287486974628456 0.01181435562041725 0.00515254038110065 0.007120187905893705 0.0031686073607268836 0.011455837605067075 0.0051703078316404465
i2357| 0.008295588827605647 0.006115643361551605 0.007681876833568371 0.0014677126649254588 0.007220173226750542 0.009648115885732885 0.006415639811665397 0.007844383715673784 0.00958454643707112 0.004812317557857609
i31722| 0.0017016435275060428 0.004665802406093301 0.005240463168790456 0.003087293554016806 0.0017611321367756068 0.005605763016662128 0.007799816180269706 0.008263909667170333 0.0002537226256762742 0.009101284778055718
i7660| 0.007942938258985783 0.011084368208569029 0.008595681440254289 0.008663578988192363 0.003082272024513298 0.0032850612016090018 0.008251319221201998 0.01277009864304851 0.009416729676302034 0.008129665939375544
i4292| 0.009429074899002594 0.007127426555042535 0.0077461863817693075 0.007632854320431122 0.005436439199921808 0.008750097058537805 0.0030810704415544852 0.0036926481776131063 0.0034514387393385906 0.008159180803926115
i13413| 0.010682849376760974 0.006293555483588284 0.009591489051841236 0.007868628080235135 0.0015748733739163817 0.0009728573185828986 0.006300421580842279 0.00609632147443661 0.007012654024399961 0.009332644680273621
i37581| 0.00897931892572678 0.010843616298637957 0.006357183606519664 2.0812181196425943e-05 0.002743448401473088 0.003977042490746379 0.003084137301000358 0.002851965586452434 0.0035961796845448857 0.008885781573509072
i12543| 0.0011493669325401898 0.0038550036699188015 0.00773727966625331 0.005352101790940224 0.002103266962570602 0.006189021226838728 0.008909496311824333 0.01003436153184012 0.011155983364263097 0.0035994653226523276
i6545| 0.006158408434795921 0.0011863951466114357 0.0074253838661139495 0.009078604611627152 0.0053603707527381675 0.007340186331113782 0.009270248232601183 0.000589037085634582 0.005680039699146379 0.006436769710804848
i10046| 0.003870345309769606 0.008797188090573548 0.007159786652068346 0.006284782103012603 0.0031527449643343366 0.005685246257751542 0.0053119546014868775 0.00940084561870132 0.0022847884722910967 0.008934702102478886
i37360| 0.006001057452333895 0.008574264755592488 0.00033184863340530904 0.00559080554140225 0.010040074234352884 0.010952874454562486 0.0029992477696376262 0.007370597623986922 0.0038835161535231547 0.001040751242463792
i35303| 0.003998510399409071 0.0018707793767062228 0.008571476152451596 0.007330598294155205 0.008373107119006143 0.009247049217018034 0.00580767246516921 0.007822920550705978 0.008970575095884635 0.002490885145877636
i28176| 0.00954593070641081 0.00804283430356207 0.008882597984366655 0.003963510231569674 0.011294522446812498 0.005059808776539834 0.0070139127735161086 0.004130488254722359 0.007634539382398328 0.003516510295562522
i19552| 0.013250044700411487 0.006294718626999349 0.003522081253700659 0.006881252653541746 0.010148051731184972 0.01198586040019409 0.006263638138428548 0.013066700828725552 0.005813252187244485 0.006185514565980181
i8144| 0.005956790135353235 0.009718496056616316 0.005478441040175166 0.013060199080004444 0.01276536502930011 0.007086711738522278 0.008764137393287482 0.008500793049446842 0.008695512571360895 0.005310752285861708
i32559| 0.04088321157202628 0.036290701007701015 0.04067925259235294 0.051664333244817624 0.04147195190469198 0.04594866830632345 0.04422538368254717 0.041657008239583126 0.037448495112307585 0.041429913693403486
i19035| 0.026764844567609018 0.04190081224649232 0.0370279498499063 0.049429991547353544 0.03621448280347886 0.0422184599436191 0.04470876291841051 0.039791036454488206 0.02982915722914032 0.02895878766032899
i36200| 0.024745043710687163 0.030113892596343304 0.014773272587275557 0.031612313231922706 0.026800812165863018 0.014888431078490126 0.01780214342277721 0.018402045071482145 0.015005205461307855 0.017954898997653648
i37318| 0.02204389091333265 0.01697233798588974 0.016162011805848385 0.02226944584160589 0.013786287285050509 0.015392486656101682 0.01711295970479391 0.018031997947125417 0.01728768519775894 0.01622791404744503
i13958| 0.03129232838665542 0.02148376912869255 0.029296225951226506 0.030449994896241436 0.0212317490966397 0.020117297852061056 0.026030636366160206 0.02289642094937036 0.03195710795688671 0.02638494255972854
i833| 0.011382872071304529 0.014802737047659569 0.014036560025277962 0.01962418727638899 0.013906095351784588 0.015096790316767491 0.019159555623015488 0.010815786002562945 0.017961056209856243 0.012872476752185382
i23340| 0.005519842221802661 0.006835327133121493 0.00827194366985158 0.0001883307252645155 0.007708708252155645 0.00030671941633150936 0.008307175627811176 0.0036834142074611636 0.00633165338277288 0.003264394569180097
i23424| 0.011484087526825016 0.004899659722611473 0.004440201004032584 0.005934802379914253 0.005349480002516673 0.009539737021854861 0.009789688219456971 0.010571312385991577 0.00923586357096293 0.00523729278718872
i23850| 0.008479650833680156 0.003589241531097181 0.0023176247901815256 0.006169181460237485 0.003796829265122987 -4.1418523320715256e-05 0.0003964636577057876 0.0010354121321777352 0.007583465451310961 0.007039498477199154
i23335| 0.008836694959257358 0.00421644773988069 0.0034346011979130065 0.0022931419219774287 0.009981905308697192 1.2820212051612654e-05 0.0030620431819135697 0.00498417147851754 0.0019428110880145794 0.0005455977368980855
i23322| 0.005744623183946763 0.001142528194466519 0.004874313958087696 0.004517429721030318 0.0030651950693340517 0.00406813359261909 0.008205161967041325 0.008786143555169575 0.003174916806574076 0.005832267615244709
i23844| 0.010848142884183662 0.008929167318530325 0.00224093532655369 0.006292715909453286 0.008214799471706887 0.0039028100830043387 0.005192782073795396 0.005258469063337628 0.002097779790223427 0.01046852901748139
i23324| 0.008660039383587424 0.0001571749291846105 0.005550420577978714 0.008867610362346956 -4.6894582843496734e-05 0.009579144898612377 0.001258046382067258 0.006580444914543913 0.002262606889978997 0.00109079602476035
i23385| 0.017399824243101214 0.004717809980364235 0.012258420097244274 0.013933545309136468 0.01160974322139026 0.011631260259579996 0.006588183334133375 0.004775352878476481 0.011876889368370502 0.0135737009003509
i23845| 0.009182243822585468 0.007583237073803418 0.007544953168195708 0.008350860533057555 0.004791263233456739 0.003537731323303218 0.00270788050392572 0.010397065896508597 0.007437802076648418 0.006460995394521515
i23389| 0.00780417291868461 0.008496972295952584 0.0036972822511364195 0.0006432370146790877 0.0009912249602718147 -5.8322083635072014e-05 0.00647766704543387 0.0034926744344951893 0.003006099040561932 0.008716785540707813
i22856| 0.005965362104219322 0.0006807065528030945 0.006388546234909169 0.0024684675381804492 0.006265843375959227 0.007116120627578179 0.005914378948558463 0.00010094379300933512 0.006126150927294342 0.004923166738670811
i5131| 0.013852911341486727 0.01292204088451903 0.00877995000578313 0.00866430800094035 0.006923213521596591 0.01625645657854855 0.006511356232540269 0.01072223563764544 0.005391841983681213 0.008405565430217582
i8032| 0.0007787343172993839 0.006305581179395137 0.004480238427406859 0.007439847469537683 0.0027148912713376647 0.004944329407889595 0.010284883778015086 0.00535110852235988 0.006242036581548319 0.00493308581417864
i20019| 0.00722867626816746 0.009216777728471647 0.0019699162667812485 0.003645372835483721 0.009070319255673054 0.0060006476206808275 0.0031812430444209164 0.0001313433187261503 0.0009712664348614149 0.0017344680037436973
i33600| 0.0011228140054146962 0.007680133159014535 0.0038588286589423203 0.005935245695146147 0.0027140473578407785 0.0015334214857452455 0.004860638138123435 0.0073358721890793245 0.0019902857112811412 0.006290640380785858
i22805| 0.007314205077654279 0.00367171121704328 0.0025355389682219227 0.002358410834489146 0.008760715211052006 0.001944845978593236 0.0002695792830728923 0.005333755029421716 0.008100550796447111 0.00035688874473920805
i11831| 0.035483365927716136 0.02866717850108947 0.027418855931504258 0.04365286897383299 0.031462736571134305 0.032709841769045345 0.030296920204143866 0.03585061909313242 0.03567295311268159 0.03880880496341012
i30193| 0.03452747864532023 0.020048188595759665 0.02104342746247504 0.020487282058181903 0.019259757499354616 0.02400369002862078 0.01632501928143562 0.02785042786533867 0.020000676270416014 0.022706495793273287
i18551| 0.017639991775291478 0.008214809054250238 0.01808183083098437 0.017575473201078495 0.019198242526673313 0.017922367970923184 0.012048873211913431 0.019087366443555128 0.016500087482377 0.00907111397061209
i25206| 0.009288550132592732 0.005491608347229148 0.0030063092718807054 -4.219298613556457e-05 0.006281050887437339 0.003671060101981981 0.008424860295651936 0.006709302850653033 0.008346318253620116 0.008860569316123291
i30663| 0.00933204183032621 0.00795924164502709 0.0027380689158724553 0.00805296812288318 0.01003133691768379 0.0012649351866196655 0.011271632797311531 0.003500029133888922 0.007355762064961937 0.004411421056713253
i21579| 0.049544610085048596 0.06480370404335054 0.05380721998763603 0.049239591065406034 0.05635219838249944 0.05265432258499352 0.051971419975635764 0.06516523865060443 0.048392143717691447 0.06935477533170317
i37802| 0.012828676328999278 0.02014166060973341 0.020938913548331082 0.017226531036634525 0.020768268189878474 0.0259157671287003 0.015033858048729008 0.018742478423031114 0.014167900190475419 0.014201459210690838
i9886| 0.01958371054245886 0.02611593522575681 0.016159721708511363 0.016789964919694308 0.011999878220008227 0.02113642057751329 0.022960911166937648 0.019682828256557695 0.016305243101556437 0.01146296850259191
i8761| 0.014819259304775711 0.009336767040680547 0.0042047069380739405 0.008424452478026864 0.0050534565321523955 0.009186584019526432 0.006721849543769185 0.013742235581326662 0.011552702076415275 0.00792297772068644
i10027| 0.008914582218874431 0.006907692639231648 0.00888163159909012 0.0038165217611596117 0.010862433001365433 0.008891639003177602 0.005750193854416809 0.004944121188501318 0.010494494334677449 0.005236130615748865
i35487| 0.008646265618741412 0.008714024664789079 0.0058846197468417445 0.012081581478706811 0.006061280895526105 0.005190077979208561 0.010337983482820723 0.00769636276033515 0.01130846138134236 0.008716600723857566
i34194| 0.011486967220461513 0.004208942241545666 0.011745216193511413 0.012241246831677035 0.004922672359758042 0.009612964143083358 0.0011833361471841432 0.0025860712295035695 0.0040264433326063645 0.004645648479037441
i8341| 0.008013648836848021 0.00509499526398513 0.005662702207781039 0.008922530454715099 0.001644224705970415 0.0013408373355976622 0.0046191439961073754 0.0006341172816965137 0.009887738694607151 0.010741702244397312
i14724| 0.014813459142734305 0.004560245846809191 0.004822747524352685 0.011643159870020415 0.005677918945952685 0.008380360783683177 0.01319832426251706 0.01277006839122406 0.01016130068038353 0.00891461057837447
i6349| 0.009676931742059346 0.012092010920808104 0.010645019501430982 0.014161537875238191 0.011764711247356518 0.013493892059136304 0.009000467497305818 0.009185464134610686 0.007059687133968189 0.0037992259868504692
i19894| 0.0024985363917972834 0.0035256568907370833 0.012346444358619596 0.012949090242700797 0.010011565444526128 0.004612183484677882 0.005431971731134093 0.008529553281872694 0.014408443778113901 0.012827598573165164
i15046| 0.005035638416577792 0.0016429128104886127 0.011637698965753372 0.007379159928959617 0.00490544728407143 0.008390650872508142 0.011530495840928709 0.011041535483465668 0.013865888695125174 0.011593411662592673
i19684| 0.00248869732730502 0.003779044740835979 0.004355354564824206 0.009226145384350062 0.012950724150692788 0.009884529934455743 0.007786206613503187 0.0038797866859547176 0.012415887622531986 0.012419859954161798
i7606| 0.0037093162899924166 0.00826086252629968 0.008198840405277996 0.003801809585032211 0.0056212743216283965 0.005463901344546596 0.00422465368728385 0.0044029987350565946 0.001565319229971445 0.004302462180030813
i19992| 0.0086896767252238 0.008346701089362593 0.0003671795779422161 -0.0005819504610381343 0.008832439967754268 0.006602487223632719 0.0055675757519737705 0.006748603431179659 0.003249424113653807 0.0002520135008783033
i2665| 0.005556008149205344 0.0054285523435999294 0.006450936345201972 0.006636162064302482 0.0017232514315691267 0.00441692397434516 0.006383574350862649 0.001199476711422172 0.0038501037752327783 0.006073349677464835
i13744| 0.004612148968026728 0.004571931660115913 0.0009804008072646984 0.008729102968112216 0.0005599274459195439 0.0026525264982929795 0.00796536355263555 0.0010186113942614971 0.0066965679473485855 0.002660113495234172
i25558| 0.005159195344686786 0.012928562645289365 0.012124021118505218 0.013283459269021124 0.007104365110414679 0.009688978883631858 0.006161018691481766 0.0135572634646564 0.011426726207966678 0.009925274203931607
i10243| 0.00391507838546677 0.01161636541315054 0.0033401894119321983 0.002200582302759815 0.005619533213425304 0.01444221084003935 0.010639418547197172 0.005659254766462311 0.006339891250448226 0.006816633034060062
i20209| 0.011118618326830068 0.01975852515834257 0.010273271029692842 0.017925263225801284 0.010043124180300024 0.011837890292897835 0.008238263716706353 0.010499237345797656 0.013825621221657263 0.01496378059144024
i10141| 0.010623176261311804 0.01696794945575069 0.006079037404981302 0.010069839754709799 0.010211091100541057 0.009965012178916802 0.01836443642390801 0.013756208918043217 0.021271935549359387 0.012869009773315284
i295| 0.0032986716334140014 0.0014561522579136668 0.0017833055780142285 0.0017392277815125312 0.006644491282055834 0.0026136119777506158 0.011210662720443076 0.00381944977480927 0.007042677888477938 0.004807510937378457
i12022| 0.0229888823243303 0.016480685569374966 0.021487768208033043 0.021781925348915637 0.022487240392189058 0.018632985578021816 0.021792543578750656 0.013909316025873699 0.016531554163869495 0.01875621025153148
i1440| 0.01894967011680367 0.021876057305565588 0.024043458571424026 0.027410857576697263 0.021221359746066256 0.017611598053959725 0.012528040643146287 0.015837407723642078 0.010662798258745589 0.011314762907633185
i27005| 0.020309340887784386 0.017121802088896566 0.00535773390369643 0.009331975098377614 0.01915582432394619 0.015697051850980765 0.017789523554867643 0.0050250710225591645 0.014313375779933506 0.01139424332994455
i22236| 0.007750315768282646 0.005788512518356965 0.002063815499745436 0.004964713963241498 0.00129064103530198 0.010107834446657806 0.004217815308419405 0.0068524802207758 0.010161206571864005 0.01010134589829307
i24457| 0.007290079939295428 0.0068481221205771445 0.008772476607507696 0.0020145535199906873 0.003609219268051543 0.009141553113503363 0.006644239075431562 0.004464285174700031 0.003888238833489806 0.00143970544089596
i26109| 0.017604258252721477 0.008276557487841134 0.015650755897368463 0.006314134338926258 0.012522084981870832 0.009839184215701291 0.012304922497507871 0.006585879190857708 0.016524563629357194 0.018695269044489315
i6683| 0.014756195040825607 0.011109483291021181 0.014560787999966988 0.011787187385069174 0.0066081832082687565 0.004915617817828015 0.01180537073067044 0.012709612491398029 0.01243874477600805 0.013280296501997186
i20952| 0.047936065473573146 0.0433509355273107 0.03675649942074446 0.05186331073787439 0.04910385035546818 0.036578767040337315 0.033675443741002245 0.047068357350284855 0.03699672925053505 0.043707538165436606
i30642| 0.04607361490312261 0.04553303262209651 0.029505506952713416 0.04056349942731 0.03827891342828996 0.040544686295241675 0.03344212244327309 0.038689274985260536 0.03316965475015013 0.034210963546647995
i11344| 0.02908078960246412 0.028436101034949934 0.021199516870352056 0.03044512496973384 0.03127146048259578 0.03165181811085437 0.03201701703834204 0.03334864086846143 0.032536913472710705 0.027848456968938024
i29757| 0.000808830823340218 0.006824235150426794 0.001308801628891971 -0.0003595403428878881 0.0031611313057674215 0.0005533624228434034 0.004485778919329616 0.006891705446282056 0.004688828236398855 0.005847512292671518
i1299| 0.0016237636138516991 0.002529249977284962 0.0022596574456593254 0.006812956207673083 0.00535382771093163 0.006981752228582889 0.0024361663415129265 0.009875920285635572 0.0063273831922428 0.0026816639864098643
i7271| 0.008511756986662294 0.008721279431107627 0.004328394986137972 0.00992817085984947 0.008842268060739863 0.0006341138526213027 0.0007705084885618273 0.010005761633427153 0.008580637161778384 0.003930007472908896
i33251| 0.006035979129803342 0.009859095299005865 0.005388341892501558 0.007499028841674902 0.003927641117868657 0.0067014161620011226 0.008645341161800062 0.004899824154214693 0.01000745579762358 0.0056986349056228494
i34694| 0.0010236534892713667 0.008870474739678296 0.0024983421533788463 -0.00023808346854603 0.004625796260459654 0.0039736014352845725 0.009492290458626084 0.005413992573076634 0.001885661002936704 -0.0005326692436144342
i21483| -0.0004042656323610985 0.0034980032448803924 0.00651732860437603 -0.000467247708431032 0.005257019137520549 0.006536954919361456 0.0004736594055672646 0.008596671041113172 0.0011958210588625992 0.007217479132077274
i8261| 0.007619787218141785 0.0070750651693812575 0.00015875383092430183 -7.207751787250116e-05 0.009342573935123645 0.0038965475248798607 0.0029025776024162 0.00704049198560936 0.009323226735644206 0.007576374302844338
i25768| 0.006821434459928818 0.0058366183553278115 0.0019443126519310262 0.008565203131282246 0.00808813781698325 0.002504075742383138 0.00512242280203038 0.008854247030799643 0.0013956782555861053 -0.0009245301534492982
i4010| 0.002872209403231658 0.006199474008048069 0.0051841079518835246 0.006897095898105717 0.004997266325276472 0.003766208601173476 0.0005108972126447583 0.009182138598633842 9.942635160702668e-05 0.008403616358000703
i19701| 0.01944575784988906 0.01199316720248577 0.012885624176982307 0.006330875147077561 0.008402852618973323 0.010215790980388606 0.010086931783934501 0.008422988916926218 0.014539871446328626 0.017685862480994942
i11031| 0.0117269862036681 0.006704553623125873 0.010748901452609752 0.010002581757648935 0.0031445949096932657 0.0022649601395843327 0.011408305195538575 0.0008002883548510152 0.004658513400796045 0.007355771782516465
i24986| 0.008700933885331797 0.0029570735648049304 0.005445113043382978 0.0013505343742230844 0.010386866914112655 0.004704258573997579 0.011162401729220253 0.004781378018602051 0.005046859370677927 0.005602722469165458
i28898| 0.00631749937182287 0.008919434260451395 0.010330673248453225 0.0044567714443193174 0.005757022252570139 0.008402100349880065 0.004718880990243263 0.001857158993049554 0.005064945085941112 0.002383099422687147
i1741| 0.005853862936699914 0.00977801053863643 0.010928772697296151 0.011680595473631681 0.0035411423342003386 0.008920308009030029 0.006877945289855147 0.004267279866358886 0.004630839589372939 0.009384351899352791
i37451| 0.0027062389138097554 0.0044187504364845715 0.007510363549495601 0.009413260076830791 0.008164385054052523 0.007293685459085954 0.008341855028142388 0.0020006222749815454 0.00383570621537963 0.010016062372877521
i25361| 0.00901805805640484 0.003696954953251678 0.010971557507595462 0.01163417270869915 0.003589657620210183 0.012919839108172302 0.01135590248043713 0.006389874280026905 0.005973662181328858 0.0032362742135021816
i18287| 0.005292482242924418 0.004284902201898609 0.011012277181072434 0.003649134786482724 0.010190541793293434 0.003240251296384985 0.001712771578710414 0.007226727662780637 0.004317841550495406 0.008547355052296922
i25479| 0.003776722795262669 0.009076906492484124 0.0025505664899421058 0.007510303649357639 0.0027063894458987706 0.008185245481467512 0.005827254465618672 0.0011566586199416914 0.007517711111441754 0.006313462318681229
i21593| 0.009006648956572738 0.004269631291524848 0.0027418383708295423 0.006350553657798581 0.006498776450394501 0.0041952966346126335 0.0064050680903364994 0.004947154954199681 0.003676889487291765 0.00046595155983467237
i33349| 0.008069068513702265 0.007127276110312701 0.004397884125265084 0.009454761474285615 0.007824809346437915 0.01056877703677437 0.008445091243536429 0.005852766182730931 0.0010555586209764901 0.004196711601399566
i27862| 0.0032037004163802513 0.00578148852505883 0.0037316159297533114 0.00586957398177013 0.009333785275527055 0.008113675555062887 0.010638302316737621 0.0013363693579412533 0.006284255539068146 0.001492497586262222
i3632| 0.005751698836256434 0.006988868537048157 0.0005666057843817858 0.0011502608599171368 0.009218193950958324 0.005081411619227422 0.005904050976878575 0.005745649226533638 0.009615080140591618 0.006556071023686369
i8091| 0.007434036461600769 0.00195747939454764 0.007664369684605951 0.0014848258116556816 0.007681763420271705 0.003738492378837538 0.009052382076934101 0.005025349243332165 0.007922027418010728 0.00718407531268463
i36612| 0.008866025083592213 0.00023114161311342085 0.007432902897963355 0.0005473812344772757 0.008610124253192271 0.006624970351100109 0.004758257611737572 0.007886461556514568 0.00471282986649467 0.004935567671719439
i18401| 0.005736237179645124 0.004377429753220174 0.00713111428518987 0.009352711185377194 0.003982797902457937 0.0031533380308806326 0.0009560452774402426 0.0064938215132946155 0.006790571363778804 0.007856654647926365
i14052| 0.004942879380990353 0.00762288295145578 0.0033889210822443516 0.002816417278045646 0.008889822443746052 0.0030931782899135613 0.008211159364805782 0.007922573845553562 0.006108807685096036 0.001769239371741689
i17520| 0.008701917294514257 0.001922433029815907 0.002832371236463371 0.0024958156814402993 0.00045280410131744213 0.003946624853309037 0.004435603823204791 0.010091838031132271 0.010278666341271945 0.0104837678944073
i11573| 0.009725654606855783 0.0006290270946852624 0.005149661445885403 0.009693901971082662 0.00490328132056646 0.0025329447207884086 0.0011557204938942378 0.0014488925177375657 0.00518257394598969 0.0045078364488961515
i24051| 0.0006075410328712128 0.008066012439477724 0.005948377752943566 0.0076681483763780985 0.00031227119761488304 0.009324413864247306 0.0031976094280615633 0.004067881696278232 0.008994454899087307 0.0027537257806488726
i32578| 0.005327326117308984 0.0049322806532616625 0.005722636346736827 0.0014654831937359948 0.004400975102719472 -0.0006332659453017211 0.006961984864562602 0.003556489770665433 0.007993879401553227 0.00600550738908314
i12117| 0.006789617694506509 0.008236062435003504 0.00420165993577746 0.0009549699229617541 0.005797414189091602 0.0066330885549265375 0.0071796386875982 0.008824253954693821 0.0013464876757485805 0.0031195098737457207
i354| 0.001037777536235701 0.010591694583060649 0.009922168187096785 0.00632302002747946 0.007992238754319128 0.009185667044303824 0.0063266750954200255 0.0047578481204138545 0.0024348535012527384 0.004962071366895165
i32057| 0.003613418728062219 0.008569720891752662 0.0042943453586463355 0.009090145378852832 -0.00039412999134436836 0.007521131775026017 0.00430594072486989 0.000951203388336835 0.001246401884869062 0.008000744360431186
i20821| 0.0023996834904477845 0.0019688106830131054 0.008109819853619037 0.0007716043979511882 -0.0006156458275118554 0.008598798181387762 0.009568859546541 0.0059225275144242796 0.008485837393549104 0.007168978148562137
i848| 0.007042004206599546 0.010673403421693196 0.00877723187596308 0.007270768671301482 0.012366403562689659 0.011726365973973876 0.010172515575413925 0.009850568092186086 0.011647686402949628 0.014088943914418908
i19957| 0.007628744781736368 0.010170966246783665 0.006454612575881579 0.005413011956460564 0.005817833466764643 0.004329760066817681 0.002793283109172655 0.007283526946676692 0.006894229853415385 0.002320758802846922
i6225| 0.013472958023170938 0.008776671853526603 0.006119855194530761 0.010574482324608217 0.011270770719772776 0.01258733958580511 0.006101816381334506 0.006346028925226733 0.009938682224155112 0.008064335794954861
i36509| 0.007636879420199988 0.0023829262561912428 0.00580100600051973 0.009087003083496761 0.0053909801487887704 0.0051462347636486855 0.009564630250034215 0.01093678042423036 0.00972380067109469 0.006197318641954364
i18162| 0.0139776857736423 0.012595344494601306 0.01448028139550312 0.017167760916274904 0.018670290756866065 0.017809926526093634 0.015623640870221984 0.015946519535429964 0.012424053408041206 0.007039983459162035
i14643| 0.009349187445885752 0.015274029883595 0.011324750612156608 0.005166373874033284 0.004256142100107803 0.013356368830935115 0.008770640423979523 0.013358775082576884 0.006995142765970008 0.008514855709790449
i34469| 0.0032659789302326315 0.007490944250070507 0.004819774815059442 0.002076159554766721 0.004041342727233004 0.002420256485398845 0.005406603062786894 0.005082770034304031 0.002351732825000979 -8.52513174650801e-05
i17675| 0.00328108059189946 0.002218164716548785 0.0011093018674032523 0.0010254118490221637 0.0062476714431991855 0.003979370005880777 0.00783259931172429 0.0014704654881410955 0.0015801898092334399 0.006162365664492199
i16971| 0.0038706444210101555 0.006555407322096387 0.002750382761489252 0.004809527725708545 0.0024205965806811352 0.0036983304990896287 0.0034844918528883213 0.007331169042150984 0.005525835218010988 0.0016092520595000694
i18572| 0.009001329292872291 0.0039578173596135175 0.0027599010775254174 0.010682589545356929 0.0031194074379383204 0.005326208948704972 0.004316971036015927 0.0063458380509955024 0.006848118744522024 0.00028056037794773524
i31064| 0.011567100704563826 0.01070327741210357 0.011086548535108133 0.010159294992641172 0.004112590342791368 0.010868274500192362 0.00535718988952947 0.0038113081082060017 0.005872487996418979 0.008744719775174926
i17353| 0.0006065863406909411 0.0037683401557421256 0.0035054309508442466 0.0011634254541862544 0.006334194375019467 0.0015169938620713172 0.005283868164363629 0.005231426697499593 0.0005209136776823975 0.0016995943536228944
i2679| 0.03388036735416984 0.021542211175526443 0.027720921877388345 0.03458249415560188 0.02241831107302445 0.03140586415369251 0.021061873110930572 0.02017068492043981 0.02859482880487382 0.02442330788076985
i33543| 0.015826721014222247 0.011534051893328921 0.01597601715093755 0.020540395306696418 0.018723780746009038 0.022027581761695173 0.016724826888405705 0.015656001029167792 0.016760686392159434 0.02029559687128586
i33467| 0.013165909562171233 0.016852564628113284 0.014478821683635588 0.014206459687171102 0.016550024608650026 0.015508762647698985 0.02039263280303509 0.01677574179362591 0.015825360005563543 0.021035015977815385
i17104| 0.019502294872587117 0.02024031160971311 0.012067968909262674 0.017769475203268936 0.018285388650532683 0.015350752201536897 0.012947493636081917 0.011103765874206115 0.019503469888830845 0.009485332034249613
i31752| 0.01829623547720904 0.010236302353938227 0.018376292551893075 0.0108450761950173 0.014432928670864821 0.016457744429068787 0.018794761584195588 0.011072393807537427 0.01754853766240383 0.01896705054956519
i33996| 0.015763698048803506 0.0200955347257265 0.028103386966219734 0.023782806864882156 0.026001302808648454 0.01960146306667499 0.021871653011178407 0.022003231435072268 0.02683013583915567 0.0174775131913354
i29209| 0.016613005482526137 0.01930470899971463 0.012606816287861325 0.01834474038199154 0.01217760438024416 0.015047195925617495 0.020057507942344815 0.016524976819495194 0.013615837540477745 0.0156637732146477
i24892| 0.014501228999087104 0.006442379705991646 0.015149641214542663 0.01431066107161443 0.006988069244859702 0.014904451823075432 0.010101787295194363 0.009375918743089911 0.00975624752919421 0.010660979961700208
i7760| 0.02950232238244292 0.04187734640486273 0.026291783631692347 0.03242537594698256 0.03213735658682558 0.027989748489708106 0.030888270708967325 0.039583458930742624 0.029745239673547728 0.030285177303006377
i10756| 0.014580137259920032 0.01007698660373585 0.015398310181419975 0.0184920328343935 0.013661431513504081 0.008985609691262985 0.015112406527252714 0.014468160776353453 0.015350940426314302 0.015749843370796976
i31369| 0.0121715877229773 0.014024104900665788 0.019993288459557317 0.014619198150523847 0.0207425870631261 0.011865699699793798 0.012920257786869189 0.014565876253797929 0.010953920186859561 0.01573872008298878
i18830| 0.01177051302092616 0.006537693149610067 0.00899930147378105 0.011288387206623396 0.010677246621192934 0.008283475116606322 0.011950849084190534 0.0150596695018502 0.009622837500150402 0.006425459804130736
i12170| 0.016121567045772892 0.012332501920458984 0.013219568669666936 0.017244606193426677 0.016437180968717584 0.006667619652514084 0.015480396542379928 0.014939842469729446 0.014365911889153482 0.008395492930846727
i34615| 0.02036954733822065 0.014043256288037225 0.014478270298902569 0.0182198097423002 0.018547852333232133 0.012867171191930609 0.01592649220156717 0.014396808369478596 0.014727370342267617 0.00799328461019384
i9650| 0.006849092470658889 0.00915615029656818 0.008143269635690335 0.012863284824744746 0.010697491419878923 0.003948112526882336 0.008445094640611201 0.006044290699152081 0.004999354135409685 0.009635425936745382
i9698| 0.012097237869312579 0.016430076853963856 0.01792084831561955 0.012181819692415524 0.012333819519555835 0.010687541599430065 0.017305752904812375 0.01943226480490994 0.016102765239004033 0.012912882812245239
i13951| 0.01411372251499575 0.012559152508044263 0.013789483002407513 0.01267758781230803 0.005040386370332293 0.013235019410997508 0.012115758631551161 0.004490249216859284 0.005140513240214743 0.013330199140700374
i30823| 0.006905512392952752 0.013290396937739968 0.007232538609545872 0.005728101499383693 0.00960037369710805 0.00487095427919109 0.004082284444497125 0.010275292144723369 0.007243808056592631 0.010242677616719324
i7239| 0.09471792703798461 0.08999132933408252 0.07911953240556946 0.09003104837033561 0.07412062439878048 0.0927313350403079 0.10104438116108036 0.09372435095745041 0.08213336923126374 0.08141397728685978
i16188| 0.022633368778312807 0.022278106222099102 0.017923092585995924 0.02352673998923677 0.01472649798722537 0.02598072673271248 0.028128399668545283 0.026731472254761673 0.024040321591148963 0.026842608463236016
i14807| 0.02328149784710963 0.022287042579324366 0.02289547818043095 0.013437366270762951 0.013377045946199928 0.021462323008002705 0.01970352566474569 0.02134831915412907 0.02403138565758943 0.012672314377606958
i28719| 0.014583321238071323 0.017445619061675847 0.016815191747208316 0.01778705798703432 0.012349176120637927 0.012251289301297904 0.021040762312541938 0.02026474003154955 0.015462225291104387 0.015007787780180866
i26750| 0.016975905057641027 0.023838745665577827 0.01489568102447295 0.022644746484572247 0.023224079344316684 0.015111716967332732 0.021176320239808942 0.025957677226295665 0.01856635731975968 0.015632168295506867
i5965| 0.0012019722203531803 0.0009785426952378137 0.004611270157077925 0.001905700313969748 0.00176529648442352 0.0058687927294751325 0.005525425374752736 0.000807782042749109 0.0010075229411119822 0.0030542883087560776
i11074| 0.004421402809829253 0.004199984734351461 0.005707577313173991 0.0055138267749982785 0.009295148405170017 0.00735057814296484 0.002305233968333764 0.010291742200297398 0.009173893710745807 0.00848377510220756
i24030| 0.007354539240004168 0.0057619999294297635 0.00037942270490275875 0.0006493177342261766 0.003093872338710198 0.005071621250506106 0.0060241008525508 0.003318098189323002 0.0018476708127533946 0.005815629671283163
i28858| 0.006471150052680953 0.007567173353970169 0.003231440489636539 0.005918310766558562 0.00937521020478513 0.007473791586206619 0.0015076343639637705 0.008573984518243387 0.00910470599910338 0.002386514496980895
i18873| 0.004505896624022088 0.006998249673373225 0.001215175908111488 0.009171399098533775 0.005031923552294395 0.004718264987998424 0.005085661532195392 0.006755896738933846 0.008141701183879016 0.0023043736079975804
i1265| 0.004428268233672628 0.007631947552075485 0.004260796871136669 0.0014561805403079146 0.0004914027632330285 0.009512844713804093 0.0040654266008558195 0.009717239284074988 0.001167779249528999 0.004798326639260349
i17283| 0.00768518981925862 0.00418615200270787 0.004705289067145927 0.00653081210188971 0.004219079541561559 0.002749659671773839 0.004294446231870458 0.006629851071159125 0.009200087313870758 0.007203680401358818
i17534| 0.009541347524995544 0.0014919407853480216 0.00594242544098553 -0.00039808315939821335 0.00040943969937227526 0.004917462768632393 0.0038036316039313316 0.004394990433880346 0.008730440483402213 0.005875396484238049
i20127| 0.002135870859451179 0.003821033998184034 0.001126397828533149 0.004567067355994408 0.009590826433463243 0.001588225621457169 0.0022546371191740477 0.004904510329866542 0.0012077405200747833 0.0029600278272619825
i35448| 0.00669130113763229 0.004152170881737776 0.0033266445764641253 0.0038122818956252275 0.002131371258842764 0.0013668162471024911 0.0022761366521830547 0.0060075936104436916 0.0038978665058780784 0.001187075245963234
i8112| 0.009353756394227124 0.0064992175897352665 0.005487230875625758 0.0025107707685620984 0.0016512773722487152 0.00377848886348227 0.005711452138371366 0.00043223948313022485 0.005583166328859508 0.00569782580111196
i3055| 0.0015091867017471012 0.004496219792276668 0.0008491404941397508 0.002777670821331807 0.005842028275663687 0.006025334882369789 0.0021497000199937094 0.000493407701177731 0.0033563969907362463 0.007126644207675133
i3919| 0.008323208429038676 0.00894845455971513 0.0019102260275362876 0.0002610054632604623 -0.00012288014337241622 0.0036534841043559673 0.00020293181777196866 0.003294018860454568 0.00789693802830035 0.000878234058282331
i7738| 0.0027010126630128725 0.007821118006613993 0.003975325212079905 0.00727960717899311 0.0031272148597812854 0.006703159855664806 0.007713766141005688 0.005745161117749143 0.007459186990701528 -0.0007130563892578618
i3406| 0.0050370010017325145 0.001311249982177611 -0.0005290375573855709 0.002817256247533297 0.004920148688181411 0.004022997977316988 0.005144841338502937 0.005369197252443398 0.00489258486472712 -0.0006545259831534788
i18995| 0.009609282814394545 0.0021600703581526157 0.00203108656416828 0.008146028732247944 0.00646283353195766 0.006475880314421069 0.0034775092873768334 0.00569180497546172 5.996525413232491e-05 0.006859637713486988
i8239| 0.0027811909747913945 0.006940342583608327 0.0010163222489875839 0.009169958154901276 0.0041767609563127485 0.0010468069580536023 0.002994019532906571 0.006349508288594402 0.00012341542114756635 0.008203722280156195
i27135| 0.005114115497439575 0.009618194226026208 0.005373001470902782 0.01149211000892325 0.005116898932629513 0.003524578246981389 0.009722717457084322 0.005725570882918046 0.005360988438893793 0.012716057653402677
i2464| 0.012078832241321565 0.005040896548704092 0.0035533500147074976 0.009277566229155198 0.007523784929555887 0.005012967528006614 0.010973908672923331 0.011906561272318289 0.011832329831630163 0.004167869385975427
i13349| 0.010450777577313386 0.011997745105164931 0.010358530020582808 0.007335202306416453 0.008180207527670676 0.010850081501223078 0.010721107869323331 0.011037701415511417 0.011289907947563045 0.006160623542366987
i8148| 0.1657616085897882 0.15812285448128546 0.16525773750981815 0.18907419687657312 0.17115590565684857 0.1472927261343264 0.23897176549094357 0.13931541563335892 0.16300421833372822 0.1642247720119268
i20273| 0.04768143813564955 0.04548885643909819 0.051360411012985274 0.04880471696244665 0.0394283951467677 0.04057232105544718 0.04861143034902417 0.04745025109033009 0.05232644342188792 0.04627980309029008
i8316| 0.0054174084751582715 0.008384490308518887 0.00011675505537283208 0.000423934535974942 0.003296831104170295 0.005998354407001683 -0.0004539134498135191 -0.0002553019914974165 0.00040776376672156255 0.0032530579557231644
i31258| 0.0034617137138075304 -0.0006811520556113355 0.004056959332306557 0.005352375202231325 9.38524235128434e-05 0.006794129221169474 0.0010410918095811127 0.007238624758158742 0.0035012579904223837 0.001503998706752062
i24070| 0.00728532577676775 0.005976668411025661 0.0022494761064759134 0.007300775424133751 0.007749135633543512 0.007554568374327149 0.006973561316109169 0.005371073855019067 0.0073783999002077555 0.0006233530337466621
i2717| 0.0038705547566419652 0.0071186736633210325 -0.00010017673041742583 -8.706687602695758e-05 0.0037269874354897057 0.00895321544625502 0.0038568309550308533 0.007110451426569474 0.0016768421453001168 0.006946433878554807
i26636| 0.004525649557136116 0.0014193467617299037 0.004362599926582514 0.0007879039158046491 0.009236150192818732 0.005207907843665843 0.0058352611411891745 0.005024159987947735 0.005601348526777602 0.002194665386655351
i24886| 0.0021993618742148714 0.008742465143166062 0.0061660792965101754 0.009238012757951435 0.0011165024569738584 0.003057835601904766 0.004581106475968864 0.0033747733975962235 0.0020070470411195146 0.007345563669153775
i21070| 0.07988154648021571 0.07855719998622346 0.07334715022859283 0.08286436126200826 0.0794105256291106 0.06206565163018822 0.08687919113716955 0.08272935751601322 0.08374151348316082 0.07162504330985578
i7462| 0.005241866937731659 0.007419982610507904 0.01273994855592658 0.008329107621422383 0.014091354103132238 0.009754068568147112 0.013498817878439423 0.010034046121004128 0.011160831791634747 0.0100525749754158
i24258| 0.030440492905188268 0.033554453675332545 0.03254561042082934 0.03258609338544066 0.021064550794984982 0.035360426150844414 0.03440777128813448 0.03015227893018787 0.031372933294820785 0.026988473391591612
i21405| 0.02727892022118382 0.04002984027739029 0.03073964407540842 0.027412123161019417 0.035083613827570824 0.035510170864542424 0.030876499579874615 0.03745202816635919 0.03090483763018348 0.027866333829871213
i339| 0.016204050545683066 0.022490410474558294 0.010026336487638246 0.020910049005360296 0.009962621255816524 0.011870819561256355 0.014751428956696195 0.019614003415763966 0.011922649717093642 0.011678761893890941
i12538| 0.016560541991914472 0.030438744976822252 0.03546795587118174 0.04084537730929774 0.03372820701850557 0.031757195013737874 0.02622115266299082 0.03001543800090714 0.033132122706151214 0.036584803070405555
i547| 0.010912244511243329 0.01854093870295537 0.011621699158496845 0.016655361380684873 0.009272921219334098 0.015519116441511367 0.011623408582534314 0.006614611511063154 0.005462211495570615 0.016864732838851537
i32187| 0.014567733726886823 0.009009631250100703 0.011871844534999523 0.009695386179910653 0.019467679734361247 0.008744916424072059 0.009482222718860183 0.017455872048079645 0.007390842000903955 0.00662338355530076
i28459| 0.01100950257620191 0.018037396452386802 0.019002322871348728 0.008239061607106283 0.013578993170471624 0.017403554767288512 0.012324179492936896 0.019281265354365765 0.013495896960407427 0.011619322051194201
i35275| 0.006934677225421095 0.008900675832483136 0.006483173384304096 0.004128437639276643 0.007239033414507481 0.009544650886363644 0.013177492358828553 0.005463759023993799 0.007237119194650561 0.011952276416113506
i21637| 0.01168909759065766 0.013551210310937109 0.009640346974030599 0.004766252357882499 0.010591040074943103 0.013435399979154394 0.008644469331372452 0.010504135203529608 0.007515518329895157 0.012817409839538687
i12018| 0.01925990466518264 0.02079613945213973 0.010419182175764666 0.01137894576335697 0.005611998692922077 0.02028692748756234 0.017338335598721718 0.011499983163202299 0.018467359301480586 0.01306339092275379
i15107| 0.012612984510091038 0.009705598012677128 0.008818097314777687 0.010684310551904297 0.006380693699998038 0.010524103033253513 0.00788736591987945 0.009864850793113961 0.0020778943872353938 0.00464762775068856
i25697| 0.007936210269682767 0.007355824251565076 0.008471943665426368 0.004155563547916892 0.009259766096243245 0.008324336492561353 0.010799365488496783 0.0024846668393831766 0.0076067794032046955 0.0069976289478177025
i11562| 0.014014190341652431 0.00950467313959611 0.00962729278598765 0.014905513259652494 0.009058057441741514 0.008117075301500824 0.010746275456590664 0.007445070212052357 0.016797417851311225 0.007476883299375982
i30998| 0.009940634626196468 0.01068989660682062 0.004060804438259778 0.01232045295645583 0.011800956903697878 0.006090166883647307 0.006656787414677551 0.011023827427043123 0.012700342798772692 0.004547933732648031
i19446| 0.008915237423729669 0.008178438281088685 0.010966148944995225 0.00674978939133573 0.0033733182395951225 0.00470283513013177 0.006019482683018902 0.00669827908653747 0.005912664522935059 0.006672330624745454
i28293| 0.0022954684135818716 0.0021900794002493915 0.00942985147773561 0.008268153473536198 0.0013569730623519758 0.006277155093183707 0.002900166732253466 0.00892117312864943 0.007050580733339958 0.007651352595051569
i25401| 0.014071897954995511 0.0062480470396460725 0.010794604337856669 0.005175051166398555 0.012180012603803128 0.01288450038593831 0.010012624411356245 0.004730104569857805 0.012967713175758911 0.013761657102530451
i3490| 0.010012020404256113 0.0027063241495742523 0.003663300980688651 0.006148946093970742 0.004195308770917684 0.0037916333371877022 0.005258037265672826 0.005389516784984306 0.007841168149907249 0.006965777035532532
i6279| 0.006141854678026627 0.01038434253533105 0.005924363732215112 0.008501909175235632 0.00503544552016185 0.0043287560424796045 0.004302084357114374 0.005005001370103665 0.011450599185608371 0.0038253964008453153
i22197| 0.011039077257486199 0.004558682688666032 0.007778785548015633 0.007363266907421338 0.005805755636265775 0.005395142270933466 0.002158776137278597 0.006230479512524018 0.006503000556753869 0.009257906126218515
i17166| 0.010759743494225319 0.011573508604201798 0.003819813551814816 0.006299413862517007 0.006215974909376846 0.003960524712910845 0.009808238458213447 0.011715206478877789 0.005961019342644262 0.010846379025334887
i26356| 0.007762024916661718 0.0018286911999957191 0.008660175744221146 0.008879674680534539 0.0007815447216666853 0.010241963577662877 0.0021931980607497108 0.002685506850354786 0.004198158214616858 0.009212370406605053
i27382| 0.009922087378886973 0.003279912223548304 0.0052004911529943245 0.004095022922750555 0.007970727456278087 0.0021073891113858405 0.011120074743096736 0.010139174801874078 0.010756553393076641 0.007853829040108999
i5204| 0.009609615019936289 0.007988837766322797 0.00996521463174196 0.006004639529658299 0.009975161826463302 0.010641885712462468 0.007564836977480761 0.0053816904484577915 0.0016924169119554712 0.0032951414433973324
i35720| 0.017437114970045783 0.013926852561770175 0.008862616510387925 0.015078530966587273 0.010892584353626928 0.0062906814411092605 0.009655916088470594 0.007854492370033835 0.008331040350236567 0.015418965533904488
i4186| 0.007181043586721707 0.007880131090563475 0.003709195393573514 0.011616649961672509 0.004347286834249939 0.002065405994374712 0.012806358591544206 0.00895971572075106 0.005976011977359826 0.010668384185198566
i32191| 0.00847088431182525 0.0018553779868248955 0.007704386886196263 0.00855034170949521 0.006470430799537452 0.007537188756169225 0.009544496670047415 0.0029874013275876794 0.007003538526994032 0.013954321964091687
i17809| 0.009062943762218303 0.005674624973900577 0.004187020835236765 0.0086448709534825 0.01178468747657182 0.010966942555062892 0.009800303636501728 0.0035463208535814043 0.004121574037939438 0.010914738250297765
i36573| 0.0059591641832652305 0.00968239414345198 0.01090543918533581 0.008857167782478966 0.009613221703290048 0.008663592635558324 0.004080649219229667 0.0031634240485283846 0.002581420794095202 0.007671564704406975
i25080| 0.007376729794191817 0.007575792527000934 0.007389161961935775 0.004068851239256443 0.001459050754065483 0.00298096625226066 0.007229971609638892 0.003721763353263079 0.002283491570289288 0.011423691229207231
i492| 0.02492212045483712 0.030627511490948525 0.02699667129426975 0.02918511581836697 0.02566924697398026 0.022957441916291125 0.0314519741813663 0.022238281085564374 0.027361468666924613 0.029008217871043285
i22450| 0.01937863190540555 0.008697610655607464 0.00656894301359574 0.012541608689001154 0.011232510380025835 0.017472309243684446 0.011798421566757554 0.009549288945658607 0.007011020624820632 0.010655479747901342
i35956| 0.011840365451253615 0.003925169788057288 0.0025372463773108605 0.002403482866337197 0.011633988122196655 0.0022711974320780877 0.0057740793834846985 0.009675568244379209 0.011117356848504237 0.01186904168887152
i21613| 0.005636162747674618 0.004299426597975428 0.005541867171983519 0.009532835359236418 0.010310924637512714 0.01053485026969565 0.009672141031383407 0.008063166961078009 0.008710654756565742 0.0023801641077148116
i34619| 0.00734116945333031 0.008841039750138273 0.0040291108871251344 0.008517935680784721 0.011902212867019328 0.014602041065134215 0.013806770130705285 0.013493138624974392 0.011882482907518019 0.011533810671445802
i6889| 0.006722988966347835 0.008762811217728239 0.005880022176214316 0.0019630330744758733 0.000971166847495133 0.003566847216484575 0.0006837829245535205 0.00756418534238575 0.00929960894065588 0.002362454877451463
i37096| 0.008938531177033505 0.008667026478977088 0.010249692077574746 0.008063160112169687 0.006400248714797069 0.007208714022445024 0.002823391066231868 0.004330717810555125 0.0030218939357727413 0.0033175740863158223
i3913| 0.007988814797866974 0.009777721363591273 0.00042158642320216553 0.008962395835803352 0.0024953879165536077 0.0011006311587426617 0.001164483240287499 0.005092271470794647 0.003513097997389331 0.00402108178783196
i35705| 0.007481936727823068 0.0059800707279783925 0.0027582586954381485 0.004115581879519612 0.004180162728703042 0.005652769537418442 0.002555242019275932 0.0013952343270674432 0.004453838647365819 0.008218048447553873
i14843| 0.0059885867441097996 0.011587035090028543 0.00801882639010826 0.011946344516032225 0.0145807881919911 0.004007131233640491 0.007003945140778806 0.015422444707341155 0.009771472599213477 0.013832402449455997
i24442| 0.005721041642376563 0.007435293570118242 0.002162063162554296 0.004254448592688517 0.009563058135215257 0.00620186359390783 0.006557037262994046 0.0032085352158165016 0.010713566522884974 0.0020537286365986058
i34527| 0.0032385939298967296 0.0041670618079141224 0.004653828352043504 0.0059449397367832115 0.010140858484541531 0.009882852085682976 0.0017014152506392413 0.005459557180219785 0.008795051126753509 0.00677811289233735
i26112| 0.007579254473522068 0.011137650196323656 0.014671035739723717 0.00921103213424114 0.009420768701529034 0.005455720946954793 0.006880839133711476 0.010498632638006445 0.00794458147862874 0.004491556637002673
i11258| 0.00923758341929905 0.0009891301992423032 0.0033825680723075903 0.00034607128961937697 0.0032292936236821583 0.005416770297600775 0.005184603931012773 0.005293306455707689 0.004555383218556538 0.005518195781763927
i26972| 0.00844040466979657 0.008854587821433486 0.009842259962081863 0.00884591592530101 0.009872732628429751 0.009225418615027223 0.008279418514779214 0.008155187894211446 0.008966374289399974 0.008515019857018422
i9576| 0.007128177232980016 0.004173110574923839 0.0022435143842320995 0.0005462847037759957 0.0015939550801594908 0.003352016790281283 0.0010522118805833024 0.006711971613269715 0.006927373506838212 0.004541661713024695
i5287| 0.0014985839840045722 0.0014681940296694697 0.001103372245740666 0.007644956745545772 0.001303654709899221 0.008397992200067884 0.008442561636460073 0.0025313881992365113 0.007129473285631518 0.008495289014794386
i10042| 0.009997432525175848 0.008292902680633391 0.010370331427605267 0.005118381577956814 0.0036390443768224354 0.0105315792159204 0.006773817177865766 0.003305798998268043 0.006567266214434951 0.006148219853912468
i35075| 0.010601705316487022 0.0046140302425792135 0.006867543875456149 0.003168885665524219 0.005788073720089589 0.010207324186016793 0.006301446876074378 0.0013313436776312357 0.00315367699709881 0.011472606875707366
i22139| 0.008499497477874408 0.003549185199637895 0.0034661773910656182 0.007397855541223373 0.010078722261309665 0.0023740241789130833 0.0031086449436622896 0.007412099836268653 0.0016622331808414843 0.004959951662207594
i5137| 0.007347261637078555 0.007334810986305862 0.009505980056046564 0.011366095936650304 0.01236996031603182 0.0030290882399993785 0.009495783552067183 0.008182326168825839 0.005326633507366592 0.006072252199704598
i25792| 0.01209826461279128 0.0028747853175603577 0.010947537949734151 0.009009317847257127 0.008507723238996389 0.012107654971137806 0.005498583100825327 0.0063700288046916135 0.004219233040315808 0.00483184135950356
i19007| 0.0030509276385593588 0.008951355762697384 0.005231794098867682 0.0022949257553944702 0.003153172185140399 0.00895416465154256 0.008046082697675025 0.004183502934071066 0.002144371090030672 0.00011320712923013674
i19397| 0.005536383259036541 0.004020400278154056 0.01097122620494933 0.006710645616920923 0.012349004169911892 0.010455788411328435 0.002271147020589643 0.004445020853023517 0.005842420949192473 0.011821789798898218
i16417| 0.01665826943412024 0.012930715054554667 0.014436250406626966 0.009776447907422313 0.012948378038151898 0.015042288834727758 0.014546280650296157 0.008124418733281387 0.012401161045464203 0.010678921842440816
i5363| 0.01317277662119264 0.01207684645108912 0.004901300045944311 0.013568107004697108 0.009089010978062792 0.012095719571658097 0.0075300082502005785 0.014433192223989004 0.014572993204919773 0.0071702055798788175
i29| 0.01746177004554641 0.014106877593959307 0.006622874485391804 0.009254466514558695 0.014676780907531536 0.013300484837002071 0.013825567755248095 0.011376582752062998 0.017803439454579798 0.011162103982441524
i27593| 0.009508758390464264 0.006473993897398527 0.01207289690570993 0.009244047011943599 0.004709442906282936 0.0058175225653756685 0.00888255619973935 0.012041420812886516 0.012403406433360142 0.008770697372704873
i24574| 0.018635267799507967 0.008734530053495072 0.01421688597450299 0.016384194327387525 0.008668590505890486 0.012351963428914167 0.018666832104756458 0.017027390183382087 0.012792453285349746 0.006707304328876601
i16561| 0.012235112229558457 0.0067381548033926975 0.009546583824650953 0.012859111789717022 0.012977093296327215 0.01142286329279859 0.005401392118966454 0.011104579043778984 0.014181225903642469 0.006189858701683231
i22738| 0.0037327293834956187 0.003445364178604454 0.00563697925472816 0.006347901084552863 0.0009967440699241053 0.006732636941874211 0.008592130493047492 0.007413477431427878 0.0062561371083155225 0.003611174183490937
i5291| 0.006796368637993156 0.008972889743184652 0.004125505520551102 0.0069622654756120025 0.007889668758313803 0.014682584704796681 0.00614064562303642 0.014169101100394257 0.008803696961547992 0.009212067831749562
i19418| 0.022513346912792696 0.010252064175524935 0.009458515576560881 0.018832855100528 0.013125218796477192 0.007203557966347702 0.01625396481224351 0.00981903009230419 0.011534756222456666 0.014984013629584198
i8974| 0.017204431078835736 0.01829296892749471 0.011181109266946295 0.017232081333022026 0.00937847234000252 0.015672994356413197 0.015639980727525312 0.013558550859539168 0.01503398756794294 0.020333735237724644
i16473| 0.006556543439618431 0.012627241603125852 0.006029040125265393 0.01440688824706665 0.010188929556180566 0.01580573324544318 0.007110684728254197 0.006234109459518092 0.010847806472033398 0.011476495961093276
i8240| 0.004771552105690437 0.006747927169979143 0.013592570616353175 0.00957202917391272 0.009756509360931614 0.00879475130259961 0.00875712676673075 0.009803291608434014 0.00583167740088564 0.01668352500397996
i13263| 0.011171697841174054 0.011161592432383599 0.01260165409808156 0.003739947428149313 0.012052532056215525 0.012056269776126682 0.007116630829235848 0.006936150098814955 0.013794609511793766 0.014939553759639295
i3626| 0.006520847726983381 0.010403420306080687 0.010125199356220709 0.007921947061374548 0.007722396586552356 0.013011368969831036 0.011347974665863838 0.017214796675823603 0.0144806509635078 0.009471120412198705
i3859| 0.007792015282771808 0.00653583461332459 0.009110841809063028 0.006811809050583875 0.008236113055513182 0.013042621368662723 0.006247519220938563 0.01213639990857268 0.010795439106490508 0.008629405726225796
i16578| 0.01473033744853908 0.023210080433699983 0.008567903689648925 0.011912837892856826 0.02151012004845719 0.015553787421432782 0.012643967060897399 0.021648022979457532 0.01609499895004928 0.019427712925689046
i10297| 0.012819139162165233 0.006229437192554469 0.010978988667341873 0.011452267516968774 0.00781336636884277 0.011743445489124257 0.012296749973858415 0.012912034978522637 0.010635592511953944 0.009998573260826609
i13898| 0.0026576292226311448 0.00847061496198842 0.011016324992477617 0.012244536033392098 0.009396006833324597 0.00468294641143032 0.005327167079340277 0.0028689849200385213 0.007618535959596278 0.0078158694105365
i22023| 0.012094447830332365 0.012562688630712384 0.004197070756247711 0.007334466880044585 0.009419404496245069 0.008704959723510415 0.009381691678778963 0.01055740020532227 0.007543188483233221 0.013499423969475635
i8821| 0.006303032358426632 0.00328280531836059 0.002966965029590121 0.009008363072597309 0.004730272547763156 0.0036606741183673255 0.009234786089103305 0.010923366870565417 0.007435433596911128 0.004436112294215097
i16055| 0.024238081351826094 0.022027425680648343 0.02280789374628364 0.017548388703786503 0.028229017099145073 0.023043040048634673 0.03607240307605049 0.028655560991772695 0.020074752639057884 0.030436768295469506
i15180| 0.012831692115826394 0.017974838004722382 0.013630233928049608 0.009381661891081404 0.005780598261171639 0.015140380175373962 0.018920339523195544 0.010739396038725159 0.005873203426987542 0.008869912115388642
i31467| 0.012079973114656108 0.013603761649808359 0.014040958459812397 0.007851984539845978 0.013311586701618515 0.00807804033484984 0.011335604764349659 0.004019339975654501 0.012189012482386482 0.00887758011805993
i30049| 0.014383579424269188 0.013412145503059506 0.007091209634720081 0.008404196260288068 0.011675966291195895 0.0053697930072590635 0.011323614687021671 0.010779440011687015 0.005665188317973635 0.011798938322580185
i31619| 0.012980867690416217 0.012308071421136725 0.011374092548910702 0.007523819782296646 0.008340574686585073 0.008479885063954388 0.0038603051313103455 0.013092837476590504 0.012394212831605007 0.0028434082320192445
i36715| 0.004275709309578113 0.01061788063286166 0.008826726791311832 0.010249898067023581 0.0065984328749944254 0.0102281454960204 0.00521099229401582 0.009527624405874133 0.007025700655767714 0.004730204831677753
i18479| 0.007704793570211094 0.01562425844845528 0.0056144514594639395 0.008264418705552841 0.014701073967028926 0.00812782111557479 0.005522079727512076 0.004945570440788046 0.00586933685183983 0.008991880611079665
i32883| 0.00923898222962952 0.006704168624802859 0.011303569110681169 0.009336645978844791 0.007702406672304628 0.011595962670356879 0.010261192807129726 0.011520881514739439 0.013218061432729631 0.00967732978680177
i18034| 0.009541361219486665 0.00767232585376247 0.004762664785060625 0.004329125206159154 0.013039339734744538 0.00961271226947245 0.013194853545354504 0.01183637700059961 0.0067699517649470785 0.009620640219571621
i1789| 0.006723642399846655 0.00993551455487993 0.01610267669578906 0.009751203812030342 0.017708941627648397 0.010620070810015623 0.008968852160295027 0.015075415467050565 0.010412648209853933 0.016218098463081185
i23065| 0.008914682075314668 0.009722682546992243 0.007631241780147525 0.009752115605534756 0.011976645464194488 0.007238872255713345 0.009168434150539622 0.012718309926555524 0.010988373911610814 0.0054237396036478005
i12392| 0.007794048317834092 0.01199758062540189 0.011273165671526095 0.004705131278924045 0.01169129602497467 0.0021493229990835533 0.0048486677050253125 0.011548915809377397 0.007941898657538443 0.011906865117811713
i15223| 0.004720825176230995 0.002503073494272843 0.0020572523528744704 0.0015179013326112674 0.00926004281087868 0.009291365448581702 0.011165087155467626 0.00952069114777683 0.004399598223822179 0.004619933212152445
i14087| 0.0015834540808773918 0.006547960008817527 0.0019091963481625794 0.002586730083421887 0.006015713156903429 0.004630253414032131 0.0032207822672356817 0.008155560177515396 0.007036476183544169 0.0010316194709540374
i29577| 0.011160299303856452 0.01007123437599142 0.004353866140550038 0.0021354381549620986 0.007060273250663705 0.008314321013927583 0.00801521056826395 0.00874619475307782 0.007773222499498703 0.008110521411031392
i35675| 0.009453668585266473 0.008568683014731463 0.005201753994466857 0.004609352938764439 0.00985331594406636 0.004324026007277012 0.006162862014856725 0.005796699890580448 0.00873652773307042 0.005999436402580515
i32394| 0.010272100441847594 0.013994844836685078 0.006088143173734636 0.008450286230922555 0.010872065482683543 0.012711565283120918 0.01560363042273602 0.008775255793457106 0.008427459833464582 0.010834319108441655
i29684| 0.008221440493862926 0.005198330241954416 0.007704278370887341 0.005203259465892246 0.009009733228146079 0.003378082581177225 0.009738699947865782 0.004499726219059864 0.008933295396359843 0.008365462583483455
i16089| 0.010131106942205184 0.008817983224059144 0.009701903140681244 0.01012640174493786 0.007304251693929496 0.004395606410932435 0.002872361130861135 0.011761644180975516 0.0032209954270626525 0.003112276030936277
i13834| 0.0019678554851408105 0.0010068654371403712 0.003468436051833813 0.00904800547689907 0.003917361084029668 0.004767806358046636 0.00453711987926093 0.007774223910648671 0.005440583680316633 0.0028859237986697973
i30608| 0.0031947972872591584 0.0016781894893274946 0.0013203304434621 0.0110242398889123 0.0055181546775718735 0.01052338835875174 0.007351392863171627 0.005683623471266978 0.00045036688907183157 0.004532932009009839
i35832| 0.014291962175313436 0.014609499200563111 0.010503825107087634 0.013826525801662373 0.016644281758036412 0.009583014436869867 0.009955179642208399 0.015117608703285277 0.015615026166958316 0.017966356725826017
i31903| 0.0068849893861362855 0.00634211091089431 0.012964197405406587 0.008680757570230367 0.0035072823475900293 0.004926000222998442 0.003213322215948979 0.005701692102505481 0.010525743878318096 0.003840558400033007
i5983| 0.00279083931952285 0.002797831901580557 0.01082965619774061 0.007975106754633983 0.00763416343210143 0.005921438456997258 0.003914037866048735 0.010014271712337689 0.0060786776852778685 0.0035044680914902023
i14990| 0.017043489477567182 0.014323333874783229 0.01524549824244391 0.010783979021729886 0.009705126593272387 0.014242034926871679 0.008397791839076647 0.01494824097629355 0.00982830193276551 0.010677753316158424
i28975| 0.011735281490791904 0.006520520306956189 0.004100233040395095 0.011576287182761326 0.011327690970551174 0.004915611169983091 0.011782563903099369 0.008854498030886815 0.010222125158799495 0.0065536903853471795
i25614| 0.005715700292721944 0.00585547548782279 0.010351089360116819 0.009172261213222451 0.004343945333729301 0.008073710356282888 0.010552661615903488 0.009766128663530924 0.008731739965348028 0.00870936630491481
i6419| 0.00924615355835426 0.009372015780025687 0.008951487244789188 0.006561910081485388 0.01038455073971968 0.012233750794429043 0.008235317908523504 0.005783935160541741 0.009069399711909095 0.009058840682972042
i24582| 0.009746174190562892 0.0035700433707361147 0.003255785545262823 0.004588245004081433 0.004406969543206998 0.008003335989086488 0.006124822292513881 0.0031877062221541148 0.008152322907785978 0.004911614017508402
i19417| 0.009144076844506532 0.015493380608319736 0.011062199718672906 0.01050996782230176 0.014009979284941675 0.011021547388136821 0.007441082770938036 0.014538938598956287 0.00665018338571491 0.008394963000823747
i15254| 0.0077478482134229225 0.005966296961586374 0.005877227866156257 0.0069531136895551885 0.00854708873329884 0.0047224580114149295 0.005784378711034589 0.00704885550048178 0.009710897963023936 0.009662044347339938
i3815| 0.0035416753460981547 0.0036331062979596653 0.010093797904973242 0.004828563777422836 0.005316818060482652 0.01253630755167209 0.011459672774308061 0.009997278814371794 0.009397882511959338 0.011945528739423025
i18107| 0.001548336515993381 0.008758284125883283 0.008896258871144513 0.0041111009045915895 0.002519440165820096 0.010765661564178195 0.005435560857528856 0.010949348943422813 0.003413628723669074 0.006988790834548755
i10707| 0.007611728802311609 0.004836153680918326 0.0032859982417693012 0.010622420425733829 0.007660841590944045 0.0017374817832416043 0.009970154027923034 0.005927585384629852 0.003299590086845162 0.007306622635807022
i24653| 0.006672956328675844 0.00277355557681619 0.0021454318434812715 0.008969145395227316 0.008678790637285336 0.011743919311845093 0.008593753950048815 0.007714424464033828 0.005815048856240281 0.004406890517182336
i6937| 0.007357304365244678 0.010593222003669628 0.014573350518665816 0.009851326751097672 0.011033924359036641 0.013564850108183358 0.010674200998909063 0.009144649492870232 0.006278470075555402 0.011209194870420101
i15602| 0.003202927652342322 0.005409160199090008 0.00996503396448415 0.008131310668720776 0.009677239793949471 0.008298036324430836 0.00975662747733502 0.011046883553505988 0.010661994304349715 0.002904658424631101
i13676| 0.009028978185533689 0.0074690561044677885 0.0034964770278066285 0.010809496136806974 0.01083841073305901 0.008901869233960425 0.010429650368287219 0.006484041505366701 0.006350580653960358 0.005318676671236511
i10843| 0.010708945054965885 0.005593545445354603 0.002236426284581513 0.0065823412635550894 0.007168835676847987 0.002095947669330425 0.00798800935973007 0.002516635964421355 0.004217824269761536 0.0066559298568922825
i29389| 0.00497941385885118 0.009018211232933582 0.003278987048170523 0.0019477052814595023 0.009110364374591404 0.009882427851367545 0.0023290763277991626 0.005990700393284888 0.007389733713257323 0.006240917134565123
i36624| 0.00793206504481579 0.011463677499491606 0.006961352536067987 0.01274646118015306 0.013445764203028157 0.011784024617452876 0.008868394915255765 0.013399453974950817 0.006227357737126566 0.013171213451136133
i15410| 0.0019285838369075216 0.008768204709130121 0.00222541868662564 0.009346732155901389 0.009465627783019705 0.009197299038940244 0.0052315067839513365 0.006167129616424123 0.005370569496836775 0.008743777257739201
i32463| 0.002987818803125341 0.01184914042249648 0.002809168275867553 0.011529391205618083 0.004012945111336891 0.0017602120880438742 0.011054544209311597 0.0035614894804907485 0.009925297585212238 0.00416098105750885
i14083| 0.002814442021314836 0.007062583939210588 0.007235206108274319 0.0055121499593356335 0.011369241068205579 0.009783088406568536 0.0024974632680017828 0.0034066236042576007 0.011088793275922921 0.002104076799944444
i8111| 0.0040812748010400956 0.005127241028754617 0.010542320087009104 0.008737314010957037 0.00549065464842966 0.003814386130349221 0.004859366966031014 0.010402855213781197 0.0027799084684870246 0.0029628581894661507
i21600| 0.0024953036659288246 0.009561448598495 0.008180075087977292 0.005399393869323342 0.0044924168199174655 0.00970945065275156 0.003627800832631059 0.009874308403411438 0.0032390308469473664 0.007622813968421353
i29179| 0.004089003500796678 0.002631025646543681 0.0008949911666685424 0.0005690117200471611 0.010329335982703875 0.003575217518327707 0.004793092559656853 0.004793764792323 0.004888465319950647 0.0050286722773973894
i32100| 0.005990379725153369 0.005365869818017368 0.0019488656759770033 0.003740187049914679 0.0029066772097287755 0.0015376372487488112 0.0023674387530439878 0.006838567497068265 0.008101742733135473 0.004960997954278258
i29557| 0.0037564520927108967 0.009900578417678586 0.008237467894632216 0.009117870325780505 0.008084637596553687 0.002352835872928282 0.0016578423423151793 0.01029755463275863 0.011230974701604252 0.006322150459708238
i454| 0.009653979511920872 0.010613278855445453 0.01034407254496915 0.006355733204543995 0.008225413411865633 0.006938902114056568 0.013520942477408345 0.009813582903170562 0.008671464866646172 0.014469208370921362
i5144| 0.004729599767468402 0.0016596080484060514 0.0069675847147589376 0.0044135307175581584 0.0011903712779528781 0.002031385762815508 0.006213009340609052 0.005075173285315892 0.01017838008413141 0.006762653581248009
i35579| 0.011985247008450968 0.009380124326059181 0.0096483680552057 0.004732754879478093 0.010981662689565588 0.0034191938243976375 0.002684503788430729 0.005187302381139709 0.0011862457771319409 0.00788664051106205
i9774| 0.0034374099547543795 0.011624708122407979 0.009195103813212997 0.0031700182500870432 0.0034954869886745705 0.008668340290138788 0.007050671804487336 0.0105612928625606 0.005121540096252305 0.007734239323190653
i30865| 0.0021536409686824846 0.0046910863484587225 0.003360528600305824 0.006880300672614846 0.010475152325821436 0.0033669573465193617 0.007228613675516351 0.006518392743272979 0.005385614218156275 0.009716776386665805
i21189| 0.0016949538871712682 0.0013504827287494766 0.006802436001475284 0.006364434210214665 0.009220934558861468 0.0012154153562902658 0.007118013276420821 0.005020092886783052 0.008050940797726745 0.005366052030916122
i12286| 0.01319010337117381 0.006863020159885382 0.009390492163451815 0.008659809006849878 0.02173158598993845 0.0077240838067287095 0.0066704667577318945 0.017643205610822103 0.011779779313954738 0.005915417649440454
i9240| 0.007849893509769808 0.0026717684045487605 0.01239444884992429 0.0070612011340442414 0.00747213414805383 0.006286693631770864 0.003637683644768292 0.008558379580178826 0.005018643474498515 0.009304193587607354
i2970| 0.0029691875017386796 0.003136529615028923 0.009612103581364023 0.004126677629251922 0.009091399177310285 0.00839376521482042 0.006101400278959888 0.0023582503911670208 0.005903430233675201 0.00826435309855215
i4748| 0.008016342380704094 0.00922453912822962 0.0029013194432789408 0.009253607369822826 0.00313939255757147 0.0003311278286466194 0.008952725096722684 0.002496684916513125 0.007901199217366369 0.0014017445331973154
i13181| 0.006266452750709901 0.004408822170406112 0.005684581553859311 0.0045344631283465555 0.0027414358866070018 0.003575715163739779 0.010346834949429657 0.002606759865683757 0.0064809711820046165 0.00306810525073959
i36967| 0.005351824637551045 0.0047006334905624215 0.00906768023540179 0.008375811771360774 0.006329437604309069 0.008681901906368552 0.0017622980069022568 0.005870656678607959 0.0004986198153542794 0.005335862838647511
i24706| 0.004120334121483174 0.008123571870081728 0.0049464572475499706 0.004230412500406146 0.008245085198614683 0.0027921825894895156 0.0010839144913090517 0.008166290461209626 0.006530638986079917 0.006541202221070057
i16352| 0.005862784295601787 0.003142263336886312 0.0023259237189763634 0.0035816261617798426 0.008371247251138901 0.001805313110318084 0.005603129313976083 0.006640344834693115 0.005253824721257187 0.008712407612572186
i33939| 0.0038746109051055115 0.006504582598391384 0.0052624684159180805 0.0052894754010629425 0.006212877543556503 0.004840726271770683 0.009035987194354535 0.006733890766128546 0.0007501389177991239 0.008017935388561397
i4889| 0.006413875018943116 0.0012864677091750372 0.009013244297066727 0.004520197505465781 0.00022944100378466728 0.00611979613192741 0.009047436446971497 0.00038220112350174977 0.001354139490548757 0.001682414672754996
i24911| 0.012899690749223905 0.00520549480472174 0.003945799673228475 0.008986218107844664 0.005810916334611458 0.010403467988390829 0.012303688088558098 0.011686869904849597 0.010741054490983762 0.013532515318254371
i6288| 0.008454300979226519 0.004146935883693371 0.001175377322049134 0.004731656374345939 0.004516056087456954 0.010661884579897208 0.0036882735379810657 0.003810625435808243 0.0063855258889660834 0.008953634098989792
i36538| 0.005252491732535428 0.0029188278407778394 0.002941947629231634 0.0059940394697287356 0.0017756018358396047 0.009880437576419212 0.0012149634116540226 0.006298810883392545 0.009784652582527104 0.00831499192040318
i8733| 0.00021686923375119636 0.00518174166247298 0.0009440972441468339 0.0012944967152621204 0.00132633311512477 0.005358840399797383 0.0005171108538407623 0.0002887707070262474 0.006382212998278487 0.009042195102018095
